
\data\
ngram 1=9239
ngram 2=66282
ngram 3=29228

\1-grams:
-4.509838	!	-0.211928
-2.145152	"	-0.3401141
-4.276299	$	-0.1642964
-3.118033	%	-0.5856317
-4.276299	&	-0.1538093
-2.667556	'	-0.1877512
-4.509838	'll	-0.1538093
-4.620268	'm	-0.1538092
-2.464398	's	-0.2020322
-4.620268	've	-0.1538093
-2.762559	(	-0.4072722
-2.605208	)	-0.3906465
-4.620268	+yesterday	-0.1538093
-1.43552	,	-0.5697688
-3.163305	-	-0.2183192
-3.554029	--	-0.1681884
-4.509838	-@	-0.1538093
-1.555044	.	-0.9507266
-4.620268	/	-0.1538092
-4.620268	0	-0.1538092
-4.422017	0.2	-0.2075984
-4.620268	0.274	-0.1538093
-4.620268	0.33	-0.1538093
-4.509838	0.4	-0.211928
-4.620268	0.63	-0.1538093
-4.080379	0.7	-0.4506365
-4.620268	0.935	-0.1538093
-4.509838	00	-0.1538093
-4.620268	03	-0.1538093
-3.799863	07	-0.4004144
-3.450174	1	-0.2923277
-4.509838	1,000	-0.1818972
-4.422017	1,104	-0.227118
-4.509838	1,300	-0.1916785
-4.167383	1,800	-0.1860622
-4.620268	1.1	-0.1538093
-4.422017	1.14	-0.1916785
-4.422017	1.2	-0.227118
-4.422017	1.209	-0.1916785
-4.422017	1.8	-0.1916785
-4.620268	1.842	-0.1538093
-4.620268	1.997	-0.1538093
-3.296243	10	-0.2667865
-4.276299	10,000	-0.1761324
-4.509838	10.0	-0.211928
-3.760385	100	-0.200271
-4.276299	100,000	-0.1676262
-4.007928	105	-0.2007041
-4.422017	109	-0.1818972
-3.578152	11	-0.2026346
-4.509838	110	-0.1538093
-4.422017	112	-0.1818972
-4.509838	113,000	-0.1818972
-4.509838	118	-0.211928
-4.509838	119.15	-0.211928
-3.724197	12	-0.1794441
-4.509838	12,000	-0.1818972
-4.422017	12,700	-0.1818972
-4.422017	120	-0.1538093
-4.422017	124.686	-0.227118
-4.422017	127	-0.1538093
-3.659779	13	-0.252575
-4.422017	13.45	-0.227118
-4.620268	13.5	-0.1538093
-4.276299	130	-0.1916785
-4.422017	132	-0.1538092
-4.276299	135	-0.2031338
-3.724197	14	-0.1890865
-4.422017	14.6	-0.227118
-4.509838	14.7	-0.211928
-4.422017	14.9	-0.227118
-4.007928	140	-0.1837259
-4.509838	140,000	-0.1538093
-3.578152	15	-0.1855446
-4.509838	150	-0.1916785
-4.509838	151	-0.211928
-4.422017	155	-0.1538092
-3.724197	16	-0.218324
-4.509838	16.2	-0.211928
-4.620268	1630	-0.1538093
-4.080379	17	-0.1792431
-3.724197	18	-0.2069387
-4.509838	18.9	-0.211928
-4.620268	18.90	-0.1538093
-4.620268	1800	-0.1538093
-4.276299	1842	-0.1818972
-4.509838	1850	-0.1916785
-3.891553	19	-0.1930311
-4.422017	19.1	-0.227118
-4.620268	19.9	-0.1538093
-4.620268	19.94	-0.1538093
-4.620268	1913	-0.1538092
-4.620268	1948	-0.1538092
-4.509838	1950	-0.1538093
-4.422017	1953	-0.1538093
-4.422017	1960	-0.2209781
-4.509838	1979	-0.211928
-4.509838	1980	-0.1916785
-4.620268	1983	-0.1538093
-4.509838	1985	-0.1538093
-4.620268	1989	-0.1538093
-4.620268	1990	-0.1538093
-4.509838	1992	-0.1538093
-4.509838	1994	-0.211928
-4.167383	1997	-0.1768974
-4.620268	1998	-0.1538093
-4.422017	1999	-0.200704
-3.554029	2	-0.2686063
-3.799863	2,000	-0.3224043
-4.620268	2,468.9	-0.1538093
-4.620268	2,640	-0.1538093
-4.620268	2.13	-0.1538093
-4.509838	2.4	-0.211928
-4.620268	2.468	-0.1538093
-4.620268	2.4689	-0.1538093
-3.630831	20	-0.2630329
-4.276299	20,331	-0.2075984
-4.276299	200,000	-0.3520567
-4.007928	2000	-0.1796709
-4.422017	2001	-0.1818972
-4.167383	2002	-0.2286998
-4.080379	2003	-0.2457103
-3.799863	2004	-0.1797816
-3.659779	2005	-0.2609377
-3.603693	2006	-0.2950681
-3.760385	2007	-0.2325582
-4.007928	2008	-0.2474925
-4.509838	2009	-0.1818972
-4.509838	2010	-0.1818972
-4.509838	2012	-0.1818971
-4.276299	2020	-0.2169326
-4.620268	205	-0.1538093
-4.276299	206	-0.1538093
-4.276299	21	-0.1860622
-4.620268	2100	-0.1538093
-4.509838	214	-0.211928
-4.620268	216.13	-0.1538093
-3.945854	22	-0.2107783
-4.422017	22.1	-0.227118
-3.630831	23	-0.2526937
-4.620268	23,200	-0.1538093
-4.620268	2300	-0.1538093
-4.422017	232.5	-0.227118
-4.422017	24	-0.1761324
-4.509838	243	-0.1538093
-4.422017	244.656	-0.227118
-4.620268	2468.9	-0.1538093
-4.167383	25	-0.1798716
-4.422017	25,000	-0.227118
-4.509838	250	-0.1916785
-4.620268	250,000	-0.1538093
-4.167383	26	-0.1676262
-4.422017	26,500	-0.2075984
-4.620268	26.8	-0.1538093
-4.509838	264.494	-0.211928
-4.422017	268,000	-0.227118
-4.422017	27	-0.1538092
-4.422017	274	-0.1916785
-4.620268	278	-0.1538092
-3.945854	28	-0.1922558
-4.167383	29	-0.1745325
-4.509838	295	-0.2119281
-3.322971	3	-0.2996098
-4.276299	3,000	-0.1860622
-4.422017	3.1	-0.227118
-4.276299	3.5	-0.3520567
-4.422017	3.8	-0.227118
-3.578152	30	-0.2318451
-4.509838	3000	-0.1538093
-4.620268	303	-0.1538093
-4.007928	31	-0.1740549
-4.620268	31,588,700	-0.1538093
-4.620268	31.5887	-0.1538093
-4.422017	313	-0.1916785
-3.891553	33	-0.1965151
-4.509838	330	-0.211928
-4.509838	341	-0.1538092
-4.276299	35	-0.2075985
-4.276299	35,000	-0.1818972
-4.276299	35.2	-0.3520567
-4.620268	357	-0.1538093
-4.276299	358	-0.1538092
-4.276299	36	-0.2090369
-4.422017	37	-0.227118
-4.167383	38	-0.1996654
-3.945854	39	-0.258696
-3.630831	4	-0.1900993
-4.620268	4,093	-0.1538093
-4.167383	4.1	-0.4489667
-4.276299	4.5	-0.3520567
-4.620268	4.7	-0.1538093
-4.422017	40	-0.1818972
-4.509838	40,000	-0.1538093
-4.422017	400	-0.1723313
-4.509838	400,000	-0.1916785
-4.509838	4093	-0.1538093
-4.422017	42	-0.227118
-4.422017	420	-0.227118
-4.422017	427	-0.1538093
-4.167383	43	-0.2754757
-4.276299	439.3	-0.2075985
-4.509838	44	-0.1538092
-4.422017	45	-0.227118
-4.422017	452,000	-0.1538093
-4.509838	47	-0.211928
-4.620268	474	-0.1538093
-4.422017	494	-0.1538092
-3.760385	5	-0.2023652
-4.167383	5,000	-0.2209781
-4.509838	5,243	-0.1538093
-4.509838	5,986	-0.1538093
-4.167383	5.5	-0.4489667
-4.422017	5.88	-0.227118
-4.080379	50	-0.2090369
-3.891553	500	-0.1777717
-4.509838	5000	-0.211928
-4.167383	51	-0.2754757
-4.276299	51.1	-0.3520567
-4.422017	510	-0.2075984
-4.007928	52.5	-0.5950947
-4.620268	5243	-0.1538092
-4.276299	54.14	-0.3520567
-4.509838	550	-0.1818972
-3.843293	57	-0.1988613
-4.422017	58	-0.1538093
-4.276299	58.7	-0.3520567
-4.276299	584	-0.1818972
-4.620268	5986	-0.1538093
-3.578152	6	-0.2042609
-4.509838	6,698	-0.211928
-4.167383	6.1	-0.3045085
-4.276299	6.2	-0.2075985
-4.276299	6.45	-0.3520567
-4.276299	6.6	-0.227118
-4.422017	6.8	-0.1538092
-4.422017	6.9	-0.227118
-3.659779	60	-0.1898367
-4.167383	60,000	-0.2090369
-4.509838	600	-0.211928
-4.509838	600,000	-0.1818972
-4.276299	61.6	-0.3520567
-4.422017	619	-0.2075985
-4.422017	630	-0.1916785
-4.620268	64	-0.1538092
-4.276299	652	-0.2075984
-4.620268	656	-0.1538093
-4.422017	66.6	-0.227118
-4.509838	6698	-0.211928
-4.509838	67.023	-0.211928
-4.620268	67.23	-0.1538093
-4.422017	68.4	-0.227118
-4.620268	686	-0.1538093
-3.690795	7	-0.234387
-4.509838	7,000	-0.1916785
-4.509838	7.27	-0.1538093
-3.724197	70	-0.2142377
-4.509838	70,000	-0.1916785
-4.007928	700	-0.2007041
-4.422017	71	-0.1538093
-4.620268	71,000	-0.1538093
-4.422017	72	-0.1916785
-4.509838	72.809	-0.211928
-4.620268	73	-0.1538093
-4.509838	74	-0.1538093
-4.276299	769	-0.1818972
-4.620268	77	-0.1538093
-4.620268	78	-0.1538093
-3.630831	8	-0.2181624
-4.422017	8,000	-0.1761324
-4.509838	8.4	-0.211928
-3.945854	80	-0.1886453
-4.276299	800	-0.1916785
-4.509838	800,000	-0.211928
-4.620268	8000	-0.1538093
-4.620268	809	-0.1538093
-4.422017	81.7	-0.227118
-4.620268	848	-0.1538093
-4.509838	85	-0.211928
-4.620268	85,500	-0.1538092
-4.509838	8700	-0.211928
-3.724197	9	-0.1848925
-4.422017	9,600	-0.1818972
-4.509838	9.1	-0.211928
-4.620268	9.18	-0.1538093
-4.620268	9.19	-0.1538093
-3.945854	9.2	-0.3520567
-4.422017	9.5	-0.227118
-4.422017	9.7	-0.227118
-4.509838	9.8	-0.211928
-4.620268	90	-0.1538092
-4.620268	90,000	-0.1538093
-4.509838	92	-0.1916785
-4.422017	935	-0.1916785
-4.620268	94	-0.1538093
-4.276299	97	-0.1723313
-4.276299	99	-0.2075984
-2.770211	:	-0.2719394
-2.427806	;	-0.3608196
-4.620268	<	-0.1538093
-2.346439	</s>
-99	<s>	-0.7902855
-4.777514	<unk>
-3.531176	?	-0.9277578
-4.422017	@-	-0.1538093
-2.314204	@-@	-0.2289971
-3.945854	@/@	-0.1538093
-3.843293	@:@	-0.3952959
-4.509838	[	-0.1538092
-4.509838	]	-0.1538093
-2.171566	a	-0.303747
-4.080379	a.m.	-0.2957713
-4.422017	abandon	-0.1916785
-3.578152	abbas	-0.2070549
-4.620268	abbreviated	-0.1538093
-4.620268	abducted	-0.1538092
-4.620268	abdullah	-0.1538093
-4.276299	abide	-0.3520567
-4.620268	abiding	-0.1538092
-4.167383	abilities	-0.1916785
-3.760385	ability	-0.2336234
-3.760385	able	-0.829178
-4.620268	aboard	-0.1538093
-4.509838	abolished	-0.1538093
-4.620268	abolishing	-0.1538093
-2.904898	about	-0.294151
-3.531176	above	-0.2000347
-4.620268	abovementioned	-0.1538092
-3.690795	abroad	-0.3163977
-4.620268	absence	-0.1538093
-4.620268	absentia	-0.1538093
-4.422017	absolutely	-0.1538093
-4.620268	abstract	-0.1538093
-4.422017	absurd	-0.227118
-4.509838	abundant	-0.1538093
-4.080379	abuse	-0.1889187
-4.620268	academic	-0.1538093
-3.760385	academician	-0.3501289
-4.007928	academy	-0.3339756
-4.422017	accelerate	-0.1962944
-4.509838	accelerated	-0.1538093
-4.509838	accelerating	-0.1538093
-4.620268	acceleration	-0.1538093
-4.167383	accept	-0.1902964
-4.509838	acceptable	-0.211928
-4.620268	acceptance	-0.1538093
-4.080379	accepted	-0.1723313
-4.422017	accepting	-0.1916785
-4.422017	access	-0.1538093
-4.422017	accessories	-0.1818972
-3.659779	accident	-0.2672982
-3.509466	accidents	-0.2686591
-4.620268	acclaim	-0.1538092
-4.620268	acclaimed	-0.1538093
-4.620268	accolades	-0.1538093
-4.620268	accommodate	-0.1538093
-4.080379	accommodation	-0.1818972
-4.509838	accommodations	-0.1538092
-4.620268	accompanied	-0.1538093
-4.620268	accompany	-0.1538092
-4.620268	accompanying	-0.1538093
-4.007928	accomplished	-0.1538093
-4.620268	accomplishment	-0.1538093
-4.167383	accomplishments	-0.1916785
-4.620268	accord	-0.1538093
-4.509838	accordance	-0.211928
-3.192922	according	-1.150537
-4.620268	accordingly	-0.1538093
-4.080379	account	-0.1818972
-3.945854	accountability	-0.243799
-4.509838	accountable	-0.1818972
-4.509838	accountants	-0.1538093
-4.422017	accounted	-0.227118
-4.509838	accounting	-0.211928
-4.276299	accounts	-0.1860622
-4.620268	accreditation	-0.1538093
-4.620268	accumulate	-0.1538093
-4.509838	accuracy	-0.211928
-4.509838	accurate	-0.1538093
-4.080379	accusation	-0.2226549
-4.422017	accusations	-0.1538093
-4.080379	accused	-0.1660691
-4.509838	accuses	-0.1538093
-4.422017	accusing	-0.1916785
-4.509838	accustomed	-0.211928
-4.620268	ace	-0.1538093
-4.167383	achieve	-0.1676262
-3.724197	achieved	-0.1685631
-4.620268	achievement	-0.1538093
-3.799863	achievements	-0.1818971
-4.167383	achieving	-0.1538093
-4.620268	acid	-0.1538093
-4.620268	acids	-0.1538092
-4.509838	acknowledge	-0.1538093
-4.007928	acknowledged	-0.1898367
-4.422017	acknowledgement	-0.1538093
-4.620268	acknowledgements	-0.1538093
-4.509838	acknowledges	-0.1538093
-4.620268	acquainted	-0.1538093
-4.509838	acquire	-0.1818972
-4.422017	acquired	-0.1538093
-4.509838	acquiring	-0.1538093
-4.620268	acquisition	-0.1538093
-4.620268	acquit	-0.1538093
-3.224707	across	-0.6073107
-4.422017	act	-0.1538092
-4.620268	acted	-0.1538093
-3.760385	acting	-0.3147754
-3.760385	action	-0.1708781
-3.799863	actions	-0.1965151
-4.620268	activate	-0.1538092
-4.620268	activated	-0.1538092
-4.620268	activates	-0.1538092
-3.690795	active	-0.1681884
-3.509466	actively	-0.192338
-3.144626	activities	-0.4128827
-3.843293	activity	-0.192132
-4.167383	actor	-0.1538093
-4.620268	actors	-0.1538093
-4.620268	actresses	-0.1538093
-4.422017	acts	-0.1538093
-3.799863	actual	-0.1750652
-4.620268	actuality	-0.1538092
-4.167383	actually	-0.1538093
-4.276299	acute	-0.1818972
-4.276299	ad	-0.2075984
-4.620268	adamant	-0.1538092
-4.509838	adamantly	-0.1538093
-4.509838	adapt	-0.211928
-4.080379	add	-0.1538093
-3.891553	added	-0.1827496
-4.620268	addicted	-0.1538093
-4.620268	addictive	-0.1538093
-4.509838	adding	-0.1538093
-4.509838	addition	-0.1538093
-3.843293	additional	-0.176624
-4.509838	additionally	-0.211928
-3.799863	address	-0.2323962
-4.509838	addressed	-0.1538093
-4.509838	adds	-0.1538093
-4.422017	adequate	-0.1538093
-4.007928	adhere	-0.5086284
-4.509838	adhered	-0.211928
-4.422017	adherence	-0.227118
-4.509838	adheres	-0.211928
-4.620268	adieu	-0.1538093
-4.509838	adjacent	-0.211928
-4.620268	adjourn	-0.1538093
-4.422017	adjust	-0.1538093
-4.509838	adjusted	-0.1538093
-4.620268	adjusting	-0.1538093
-4.007928	adjustment	-0.2759837
-4.276299	adjustments	-0.1538092
-4.509838	administer	-0.1538093
-4.620268	administering	-0.1538092
-4.620268	administrated	-0.1538093
-3.247268	administration	-0.3690733
-4.509838	administrations	-0.1538093
-3.283472	administrative	-0.2860882
-4.276299	administrator	-0.1538093
-4.620268	admirably	-0.1538093
-4.509838	admiration	-0.211928
-4.422017	admires	-0.227118
-4.509838	admission	-0.1538093
-4.509838	admit	-0.1538093
-4.509838	admittance	-0.1538093
-4.422017	admitted	-0.1538093
-4.276299	adopt	-0.1945577
-3.891553	adopted	-0.1805458
-4.620268	adopting	-0.1538093
-4.509838	adoption	-0.211928
-4.509838	adopts	-0.1538093
-4.620268	adornments	-0.1538093
-4.509838	adults	-0.211928
-3.945854	advance	-0.2451579
-3.690795	advanced	-0.1881813
-4.509838	advancement	-0.1538093
-4.620268	advancements	-0.1538093
-4.509838	advances	-0.1538093
-4.509838	advancing	-0.211928
-3.843293	advantage	-0.355606
-4.509838	advantageous	-0.1538092
-4.007928	advantages	-0.3424225
-4.620268	advent	-0.1538093
-4.620268	adversaries	-0.1538093
-3.891553	adverse	-0.355606
-4.620268	adversely	-0.1538093
-4.620268	advertisers	-0.1538092
-4.620268	advertising	-0.1538093
-4.509838	advice	-0.1538093
-4.620268	advising	-0.1538093
-4.422017	advisor	-0.1818972
-4.620268	advisory	-0.1538093
-4.620268	advocacy	-0.1538093
-4.167383	advocate	-0.1837259
-4.422017	advocated	-0.1916785
-4.422017	advocates	-0.1538093
-4.509838	advocating	-0.1538093
-4.620268	aerial	-0.1538093
-4.509838	aeroflot	-0.1538093
-4.422017	aesthetics	-0.1916785
-4.422017	af	-0.1538093
-4.509838	afar	-0.1916785
-3.450174	affairs	-0.2823794
-3.799863	affect	-0.2598384
-3.760385	affected	-0.2148557
-4.422017	affecting	-0.1538093
-4.167383	affects	-0.2209781
-4.167383	affiliated	-0.1761324
-4.422017	affiliation	-0.1538092
-4.422017	affiliations	-0.1538093
-4.509838	affirmation	-0.1538093
-4.620268	affirmed	-0.1538093
-4.509838	afflicted	-0.1538093
-4.422017	afford	-0.1818972
-4.620268	affordable	-0.1538092
-4.422017	afghan	-0.1538093
-4.620268	afghani	-0.1538093
-4.080379	afghanistan	-0.1818972
-4.620268	aficionados	-0.1538092
-4.620268	aforementioned	-0.1538093
-4.620268	aforesaid	-0.1538092
-4.080379	afp	-0.1796709
-4.509838	afraid	-0.1538093
-4.080379	africa	-0.2105135
-4.422017	african	-0.1538093
-2.836831	after	-0.2794085
-4.620268	aftermath	-0.1538093
-4.509838	afternoon	-0.1538093
-4.276299	afterwards	-0.2090369
-3.432082	again	-0.2664237
-3.109519	against	-0.288646
-3.891553	age	-0.1538093
-4.422017	aged	-0.1538093
-3.945854	agencies	-0.1538093
-3.659779	agency	-0.2238458
-4.509838	agenda	-0.1916785
-4.509838	agendas	-0.1538093
-4.509838	agent	-0.1538093
-4.422017	agents	-0.1538093
-4.620268	aggravating	-0.1538093
-4.620268	aggressive	-0.1538093
-4.509838	aggressively	-0.1538093
-4.620268	agile	-0.1538093
-4.509838	aging	-0.1538093
-3.945854	ago	-0.270469
-4.509838	agree	-0.1538093
-3.760385	agreed	-0.4528729
-4.509838	agreeing	-0.211928
-3.469053	agreement	-0.2973569
-3.724197	agreements	-0.1898367
-4.509838	agri	-0.211928
-4.080379	agricultural	-0.1696364
-4.080379	agriculture	-0.2767817
-4.080379	ahead	-0.200704
-4.276299	ahmadi	-0.1962945
-4.509838	ahmadinejad	-0.1538093
-4.620268	ai	-0.1538093
-3.945854	aid	-0.1898367
-4.620268	aided	-0.1538093
-4.620268	aiding	-0.1538092
-3.630831	aids	-0.2850249
-4.167383	aim	-0.1723313
-4.007928	aimed	-0.5950948
-4.620268	aiming	-0.1538093
-4.276299	aims	-0.2075985
-3.724197	air	-0.1789784
-4.509838	aircraft	-0.1538093
-4.620268	aircrafts	-0.1538092
-4.509838	aires	-0.1916785
-4.620268	airline	-0.1538093
-4.620268	airlines	-0.1538093
-4.509838	airspace	-0.1538093
-4.620268	airway	-0.1538092
-3.509466	al	-0.8469067
-4.620268	alania	-0.1538092
-4.276299	alarm	-0.2075985
-4.620268	alarmed	-0.1538093
-4.620268	alarming	-0.1538092
-4.620268	albania	-0.1538093
-4.620268	albright	-0.1538092
-4.422017	alcohol	-0.1723313
-4.509838	aleksandr	-0.211928
-4.509838	alekseev	-0.1538093
-4.509838	alekseyev	-0.1538093
-4.167383	alert	-0.1979766
-4.276299	aletsch	-0.3520567
-4.509838	alexander	-0.211928
-4.620268	algerian	-0.1538093
-4.620268	algiers	-0.1538093
-4.620268	alighting	-0.1538093
-4.509838	alive	-0.1538092
-2.781949	all	-0.2557693
-4.620268	allah	-0.1538093
-4.276299	alleged	-0.1818972
-4.620268	allegedly	-0.1538093
-4.620268	allegiance	-0.1538093
-4.620268	alleviate	-0.1538093
-4.620268	alliance	-0.1538093
-4.620268	allied	-0.1538093
-4.620268	allies	-0.1538093
-4.276299	allocate	-0.1962945
-4.080379	allocated	-0.1538093
-4.509838	allocates	-0.1538093
-4.620268	allocating	-0.1538092
-3.799863	allocation	-0.3079338
-4.422017	allocations	-0.1538093
-4.620268	allotment	-0.1538093
-4.620268	allotted	-0.1538092
-4.167383	allow	-0.1723313
-4.422017	allowance	-0.1676262
-4.509838	allowances	-0.1660691
-3.891553	allowed	-0.2226549
-4.276299	allowing	-0.1648274
-4.422017	allows	-0.1538093
-4.620268	alludes	-0.1538093
-3.630831	almost	-0.1777903
-3.554029	alone	-0.2779958
-3.469053	along	-0.4314566
-4.509838	alpine	-0.211928
-4.167383	alps	-0.1877395
-3.296243	already	-0.2009625
-2.798109	also	-0.2158146
-4.620268	alter	-0.1538093
-4.620268	altered	-0.1538093
-4.509838	altering	-0.1538093
-4.620268	alternate	-0.1538092
-4.167383	although	-0.1927794
-4.620268	altitude	-0.1538093
-4.276299	altogether	-0.1538093
-4.509838	alumni	-0.1538093
-4.509838	alumnus	-0.1538093
-3.891553	always	-0.1538093
-4.509838	am	-0.1538093
-4.620268	amadi	-0.1538093
-4.620268	amateur	-0.1538093
-4.620268	amateurs	-0.1538092
-4.620268	amazed	-0.1538093
-4.007928	ambassador	-0.258696
-4.422017	ambitious	-0.1916785
-4.620268	ambivalent	-0.1538093
-4.620268	amend	-0.1538093
-4.620268	amending	-0.1538093
-4.620268	amendment	-0.1538093
-4.620268	amendments	-0.1538093
-3.469053	america	-0.3174405
-4.620268	america'	-0.1538093
-3.630831	american	-0.1770359
-3.945854	americans	-0.2367148
-4.080379	amid	-0.1538092
-4.620268	amidst	-0.1538093
-3.945854	amino	-0.5086285
-4.422017	amman	-0.1916785
-3.153865	among	-0.3134894
-4.080379	amongst	-0.1538093
-3.724197	amount	-0.3353345
-4.276299	amounted	-0.3520567
-4.620268	amounting	-0.1538093
-4.276299	amounts	-0.1818972
-4.509838	ample	-0.1538093
-4.620268	amply	-0.1538093
-4.509838	amr	-0.1538093
-4.620268	amyloid	-0.1538093
-4.620268	amyloidosis	-0.1538093
-2.676795	an	-0.2606568
-4.509838	analog	-0.1538093
-4.620268	analyses	-0.1538093
-4.276299	analysis	-0.1786851
-4.422017	analyst	-0.1761324
-4.422017	analysts	-0.1660691
-4.620268	analyze	-0.1538093
-4.422017	analyzed	-0.1916785
-4.509838	anastomoses	-0.1538093
-4.509838	anastomosis	-0.1538093
-4.620268	ancestors	-0.1538093
-4.422017	ancient	-0.1916785
-1.624527	and	-0.2970451
-4.620268	andrei	-0.1538092
-4.422017	andrey	-0.227118
-4.620268	angiorrhea	-0.1538093
-4.620268	angry	-0.1538093
-3.843293	anhui	-0.1919959
-4.509838	animal	-0.1538093
-4.509838	animals	-0.1538093
-4.509838	ankara	-0.211928
-4.620268	annex	-0.1538093
-4.167383	anniversary	-0.2754757
-4.509838	announce	-0.1538093
-3.381932	announced	-0.3616125
-4.422017	announcement	-0.1996654
-4.422017	announcements	-0.1538093
-4.509838	announces	-0.1860622
-4.422017	announcing	-0.227118
-4.620268	annoy	-0.1538093
-4.509838	annoyance	-0.1538093
-3.891553	annual	-0.1708781
-4.620268	annually	-0.1538093
-4.509838	anonymous	-0.1538093
-3.366424	another	-0.2099248
-4.422017	ansa	-0.1538093
-4.422017	answer	-0.1916785
-4.509838	answered	-0.211928
-4.509838	answering	-0.211928
-4.620268	answers	-0.1538093
-4.620268	antagonism	-0.1538093
-4.620268	antagonists	-0.1538093
-3.690795	antarctic	-0.1920519
-4.007928	antarctica	-0.1796709
-4.509838	antennas	-0.1538093
-3.603693	anti	-0.9804456
-4.620268	antibodies	-0.1538092
-4.620268	antibody	-0.1538093
-4.422017	anticipated	-0.1538093
-4.422017	anxiety	-0.1538093
-3.077038	any	-0.1807912
-4.620268	anya	-0.1538093
-4.620268	anymore	-0.1538093
-4.276299	anyone	-0.1818972
-4.422017	anything	-0.1538093
-4.620268	anytime	-0.1538093
-4.620268	anywhere	-0.1538092
-4.422017	apart	-0.1916785
-4.080379	apartment	-0.1877395
-3.760385	apartments	-0.2133178
-4.620268	aplasia	-0.1538093
-4.620268	apologetic	-0.1538092
-4.620268	apologize	-0.1538093
-4.620268	apoplectic	-0.1538093
-4.620268	apoplexia	-0.1538093
-4.620268	apparatus	-0.1538093
-4.276299	apparently	-0.1538093
-4.080379	appeal	-0.1660691
-4.167383	appealed	-0.3424225
-4.509838	appeals	-0.1916785
-3.945854	appear	-0.2607382
-4.422017	appearance	-0.1538092
-3.945854	appeared	-0.1798716
-4.620268	appearing	-0.1538093
-4.620268	appears	-0.1538093
-4.509838	applause	-0.1818972
-4.620268	apple	-0.1538093
-4.080379	applicable	-0.1723313
-4.620268	applicant	-0.1538093
-4.276299	applicants	-0.1916785
-3.843293	application	-0.1873782
-3.945854	applications	-0.1818972
-4.007928	applied	-0.1818972
-4.509838	applies	-0.211928
-4.276299	apply	-0.1860622
-4.422017	applying	-0.1818972
-4.620268	appoint	-0.1538092
-3.799863	appointed	-0.1740549
-4.422017	appointing	-0.1538093
-3.843293	appointment	-0.1764946
-4.080379	appointments	-0.1916785
-4.620268	appraisal	-0.1538092
-4.509838	appraise	-0.1538092
-4.620268	appreciate	-0.1538092
-4.620268	appreciated	-0.1538092
-4.509838	appreciates	-0.1538093
-4.276299	appreciation	-0.1761324
-4.422017	approach	-0.1538093
-4.620268	approaches	-0.1538093
-4.620268	approaching	-0.1538093
-3.891553	appropriate	-0.1538093
-4.422017	appropriately	-0.2075985
-4.509838	appropriation	-0.1538092
-3.432082	approval	-0.2509726
-4.276299	approvals	-0.1818972
-4.620268	approve	-0.1538093
-4.007928	approved	-0.1837259
-3.690795	approximately	-0.1668012
-4.276299	april	-0.2417178
-4.620268	aqsa	-0.1538093
-4.620268	aquatic	-0.1538093
-4.620268	aquifers	-0.1538092
-4.509838	arab	-0.1538093
-4.620268	arabia	-0.1538093
-4.620268	arable	-0.1538093
-4.276299	arbitration	-0.1786851
-3.945854	arctic	-0.2022751
-4.620268	arduous	-0.1538093
-2.462494	are	-0.269491
-3.247268	area	-0.3396856
-3.235841	areas	-0.3109075
-4.620268	aren't	-0.1538093
-4.620268	arena	-0.1538093
-4.509838	argentina	-0.1648274
-4.509838	argentine	-0.1538093
-4.509838	argentinean	-0.1538093
-4.276299	argued	-0.3520567
-4.620268	argues	-0.1538093
-4.620268	argumentation	-0.1538093
-4.509838	arise	-0.1538093
-4.620268	arisen	-0.1538093
-4.422017	arising	-0.1916785
-4.167383	arm	-0.1818972
-4.509838	armament	-0.211928
-4.509838	armani	-0.1538093
-3.283472	armed	-0.4278328
-4.007928	armies	-0.2315591
-4.509838	armistice	-0.211928
-3.799863	arms	-0.1629715
-3.366424	army	-0.2788843
-3.213852	around	-0.3647578
-4.422017	aroused	-0.1538093
-4.620268	arrange	-0.1538093
-4.167383	arranged	-0.1538093
-4.422017	arrangement	-0.1538093
-3.760385	arrangements	-0.3000398
-4.620268	arranges	-0.1538093
-4.620268	arranging	-0.1538092
-4.509838	arrest	-0.1538092
-3.659779	arrested	-0.2130757
-4.276299	arrhythmia	-0.1761324
-4.620268	arrhythmias	-0.1538092
-4.509838	arrival	-0.211928
-4.509838	arrive	-0.1538093
-3.799863	arrived	-0.3931677
-4.620268	arrives	-0.1538093
-4.620268	arriving	-0.1538093
-4.276299	art	-0.1538092
-4.509838	arteries	-0.1538093
-4.007928	article	-0.1988613
-3.799863	articles	-0.1941018
-3.799863	artificial	-0.301434
-4.620268	artillery	-0.1538093
-4.620268	artistic	-0.1538093
-4.620268	arts	-0.1538092
-2.40391	as	-0.3603826
-4.620268	ascencio	-0.1538093
-4.620268	ascertained	-0.1538093
-4.620268	ascertaining	-0.1538092
-4.620268	ascribe	-0.1538093
-4.620268	asencio	-0.1538093
-4.509838	asensio	-0.211928
-4.620268	ashen	-0.1538093
-4.620268	ashi	-0.1538093
-4.620268	asia	-0.1538093
-4.509838	asian	-0.1538093
-4.276299	aside	-0.2075985
-4.509838	ask	-0.1538093
-3.891553	asked	-0.1979767
-4.422017	asking	-0.1818972
-4.167383	aspect	-0.1761324
-3.760385	aspects	-0.3079338
-4.620268	assailant	-0.1538093
-4.509838	assassination	-0.1538093
-4.509838	assassinations	-0.211928
-4.509838	assault	-0.1538093
-4.620268	assaulter	-0.1538093
-4.422017	assembled	-0.1538093
-4.080379	assembly	-0.2031338
-4.620268	asserted	-0.1538093
-4.422017	assertion	-0.1538092
-4.620268	asserts	-0.1538093
-4.276299	assess	-0.3520567
-4.620268	assessed	-0.1538093
-4.620268	assessing	-0.1538093
-3.450174	assessment	-0.3237302
-4.276299	assessments	-0.1761324
-4.509838	asset	-0.1538093
-4.509838	assets	-0.1538093
-4.509838	assign	-0.1538093
-3.760385	assigned	-0.1784296
-4.620268	assignment	-0.1538093
-4.276299	assist	-0.1860964
-3.843293	assistance	-0.2106143
-4.167383	assistant	-0.1996654
-4.167383	assisted	-0.1538093
-4.509838	assisting	-0.1538093
-4.620268	associate	-0.1538093
-4.422017	associated	-0.1916785
-3.48879	association	-0.3040257
-4.422017	associations	-0.1818971
-4.620268	assortment	-0.1538093
-4.422017	assumed	-0.1538092
-4.509838	assumes	-0.1538093
-4.620268	assuming	-0.1538093
-4.276299	assurance	-0.1538092
-4.276299	assure	-0.3045084
-4.422017	assured	-0.1538093
-4.276299	aston	-0.3520567
-4.620268	astonished	-0.1538093
-2.253771	at	-0.5605495
-4.422017	athens	-0.1538093
-4.167383	athlete	-0.1538093
-3.554029	athletes	-0.2188192
-3.891553	atmosphere	-0.1726072
-4.276299	atomic	-0.2209781
-3.945854	atrial	-0.6530867
-4.167383	attache	-0.2090369
-4.422017	attached	-0.1538093
-3.760385	attack	-0.1764191
-3.843293	attacked	-0.1979766
-4.620268	attacker	-0.1538093
-4.620268	attacking	-0.1538092
-4.167383	attacks	-0.1916785
-4.509838	attain	-0.1818972
-4.620268	attained	-0.1538093
-4.620268	attaining	-0.1538092
-4.620268	attainment	-0.1538093
-4.509838	attainments	-0.1538093
-4.080379	attempt	-0.3424225
-4.620268	attempted	-0.1538093
-4.276299	attempting	-0.3001593
-4.167383	attempts	-0.1761324
-4.276299	attend	-0.1996654
-4.080379	attended	-0.2759836
-4.620268	attends	-0.1538093
-3.554029	attention	-0.3214992
-4.620268	attentive	-0.1538092
-4.276299	attire	-0.1818972
-3.799863	attitude	-0.266678
-4.620268	attitudes	-0.1538093
-4.276299	attorney	-0.1538093
-4.509838	attorneys	-0.1538093
-3.760385	attracted	-0.1905725
-4.276299	attracting	-0.1538093
-4.509838	attraction	-0.1538093
-4.620268	attractive	-0.1538093
-4.620268	attribute	-0.1538093
-4.422017	attributed	-0.1916785
-4.509838	attributes	-0.211928
-4.276299	auction	-0.2075985
-4.620268	audience	-0.1538092
-4.620268	audit	-0.1538092
-4.276299	auditing	-0.1538093
-4.620268	augment	-0.1538093
-3.799863	august	-0.2468577
-4.276299	australia	-0.1996654
-4.276299	austria	-0.3045085
-4.422017	author	-0.1538092
-3.48879	authorities	-0.2220145
-3.578152	authority	-0.2076742
-4.167383	authorization	-0.1723313
-4.007928	authorized	-0.1768974
-4.080379	authors	-0.1676262
-3.843293	auto	-0.2274891
-4.620268	automaker	-0.1538093
-4.422017	automakers	-0.1538093
-4.620268	automatic	-0.1538093
-4.167383	automatically	-0.1761324
-4.509838	automobile	-0.1538093
-4.167383	automotive	-0.1996654
-3.891553	autonomous	-0.3000398
-4.620268	autonomy	-0.1538093
-4.620268	autos	-0.1538093
-4.620268	autumn	-0.1538093
-4.620268	auxiliary	-0.1538093
-4.509838	available	-0.1538093
-3.760385	avandia	-0.2208486
-4.509838	avenge	-0.1916785
-4.620268	avenues	-0.1538093
-3.843293	average	-0.1642963
-4.620268	aversion	-0.1538092
-4.620268	avert	-0.1538092
-4.276299	aviation	-0.1538092
-4.422017	avoid	-0.1676262
-4.620268	avoidance	-0.1538092
-4.422017	avoiding	-0.1761324
-4.620268	awaiting	-0.1538093
-4.620268	awakening	-0.1538093
-4.620268	awaking	-0.1538093
-3.724197	award	-0.2045902
-4.276299	awarded	-0.1538093
-4.509838	awarding	-0.1538092
-3.891553	awards	-0.2149807
-4.509838	aware	-0.211928
-3.799863	awareness	-0.3040827
-3.450174	away	-0.2897379
-4.620268	ayyam	-0.1538093
-4.620268	az	-0.1538092
-4.620268	aziz	-0.1538093
-4.620268	b.	-0.1538093
-4.620268	bachelor	-0.1538093
-3.432082	back	-0.2861061
-3.843293	background	-0.1902964
-4.509838	backgrounds	-0.1538093
-4.620268	backs	-0.1538093
-4.509838	backup	-0.1916785
-4.620268	backwards	-0.1538092
-4.620268	bacteria	-0.1538092
-4.620268	bacterial	-0.1538092
-4.080379	bad	-0.1648274
-4.620268	badge	-0.1538093
-4.422017	badges	-0.1916785
-4.509838	badly	-0.2119281
-4.620268	baengnyeong	-0.1538092
-4.167383	bag	-0.1873782
-4.509838	bags	-0.1818972
-4.620268	baigang	-0.1538092
-4.509838	baihua	-0.1916785
-4.620268	bakery	-0.1538093
-4.422017	balance	-0.1761324
-4.509838	balanced	-0.211928
-4.509838	balances	-0.211928
-4.167383	balasingham	-0.1723313
-4.422017	ball	-0.1538093
-4.620268	ballot	-0.1538093
-4.620268	ballots	-0.1538093
-4.509838	balsillie	-0.1916785
-4.509838	baltic	-0.1538093
-4.422017	ban	-0.1538093
-4.620268	band	-0.1538092
-4.509838	bandit	-0.1538093
-4.509838	bands	-0.1538092
-4.620268	banged	-0.1538093
-4.620268	bangguo	-0.1538093
-3.760385	bangladesh	-0.1900993
-4.276299	bangladeshi	-0.1723313
-3.891553	bank	-0.1626013
-3.891553	banking	-0.2297163
-4.167383	banks	-0.1696364
-4.422017	banned	-0.1916785
-4.422017	banner	-0.1538093
-4.620268	banning	-0.1538093
-4.620268	bao'an	-0.1538093
-4.620268	baoan	-0.1538093
-4.620268	baojin	-0.1538093
-4.276299	bar	-0.1723313
-4.509838	bargain	-0.1538093
-4.620268	bargaining	-0.1538092
-4.620268	barrack	-0.1538093
-4.509838	barracks	-0.1538093
-4.509838	barriers	-0.211928
-4.620268	barring	-0.1538093
-4.080379	barroso	-0.2148557
-3.760385	base	-0.1768974
-3.381932	based	-0.5218444
-4.509838	bases	-0.1538092
-3.760385	basic	-0.1910929
-4.007928	basically	-0.1676262
-4.620268	basin	-0.1538093
-3.690795	basis	-0.2265676
-4.620268	basket	-0.1538093
-4.007928	basketball	-0.1723313
-4.620268	baskets	-0.1538092
-4.509838	batch	-0.1818972
-4.620268	batches	-0.1538093
-3.843293	battalion	-0.1723313
-4.509838	battered	-0.1538093
-4.080379	battle	-0.1538093
-4.620268	battlefield	-0.1538093
-4.620268	battles	-0.1538093
-4.620268	bayside	-0.1538093
-3.032462	be	-0.2088842
-4.620268	beaming	-0.1538093
-4.509838	bear	-0.1538093
-4.422017	bearers	-0.1538092
-4.620268	bears	-0.1538093
-4.509838	beating	-0.1538093
-4.620268	beautification	-0.1538093
-4.422017	beautiful	-0.1761324
-4.620268	beautifying	-0.1538093
-4.620268	beauty	-0.1538093
-3.760385	became	-0.3723857
-3.126718	because	-0.4456567
-3.509466	become	-0.2686591
-4.422017	becomes	-0.1916785
-3.891553	becoming	-0.1768974
-4.276299	bed	-0.1723313
-4.007928	beef	-0.4762506
-3.509466	been	-0.1808761
-3.126718	before	-0.3481786
-4.620268	beforehand	-0.1538093
-3.450174	began	-0.3181456
-4.007928	begin	-0.1750652
-3.891553	beginning	-0.1737058
-4.080379	begun	-0.1798716
-4.620268	behalf	-0.1538093
-4.620268	behaving	-0.1538093
-3.945854	behavior	-0.1916785
-3.945854	behaviors	-0.1945577
-3.690795	behind	-0.2957713
-4.620268	bei	-0.1538093
-4.620268	beida	-0.1538093
-4.422017	beidaihe	-0.1916785
-3.414714	beijing	-0.2919922
-3.092974	being	-0.2048364
-4.620268	beings	-0.1538092
-4.620268	beixi	-0.1538093
-4.422017	belgrade	-0.1916785
-4.276299	belief	-0.1538092
-4.620268	beliefs	-0.1538093
-4.620268	believable	-0.1538093
-3.630831	believe	-0.4189757
-3.891553	believed	-0.451567
-3.843293	believes	-0.4267748
-4.620268	believing	-0.1538093
-3.945854	bell	-0.2142377
-4.422017	belligerent	-0.1916785
-4.620268	belong	-0.1538093
-4.620268	belonged	-0.1538092
-4.620268	belongings	-0.1538093
-4.620268	belongs	-0.1538093
-4.509838	below	-0.1538093
-4.620268	belts	-0.1538092
-4.422017	bench	-0.1916785
-4.620268	benchmarks	-0.1538093
-4.620268	beneath	-0.1538093
-4.167383	beneficial	-0.1538092
-4.080379	benefit	-0.1761324
-4.422017	benefited	-0.1916785
-3.843293	benefits	-0.1808832
-4.620268	benefitted	-0.1538093
-4.620268	benevolent	-0.1538092
-4.620268	berezovksky	-0.1538093
-4.620268	berezovksy	-0.1538093
-3.724197	berezovsky	-0.1902964
-4.509838	berlin	-0.211928
-4.509838	bernard	-0.1916785
-4.620268	beside	-0.1538092
-4.509838	besides	-0.1538093
-4.620268	besieged	-0.1538092
-3.945854	best	-0.1785341
-4.620268	bestow	-0.1538092
-3.760385	better	-0.1723313
-2.80642	between	-0.4266247
-4.620268	beverage	-0.1538093
-4.276299	beyond	-0.1761324
-4.620268	bharatiya	-0.1538093
-4.167383	bi	-0.1962944
-4.509838	bian	-0.1538093
-4.620268	biathlete	-0.1538093
-4.080379	biathlon	-0.184543
-4.276299	bid	-0.211928
-4.167383	bidding	-0.1996654
-4.620268	bidirectional	-0.1538093
-4.422017	bids	-0.1538093
-4.620268	bien	-0.1538093
-4.620268	biennially	-0.1538093
-3.659779	big	-0.168237
-4.422017	bigger	-0.1538093
-4.509838	biggest	-0.1611235
-3.760385	bilateral	-0.3693404
-4.620268	bilaterally	-0.1538093
-4.422017	bill	-0.1538093
-3.381932	billion	-0.4613744
-4.276299	bin	-0.3520567
-4.620268	binary	-0.1538093
-4.620268	binding	-0.1538092
-4.620268	bingbing	-0.1538093
-4.620268	bingjian	-0.1538093
-4.276299	bio	-0.3520567
-4.422017	bioartificial	-0.227118
-4.007928	biological	-0.1837259
-3.843293	biology	-0.2969911
-4.620268	bipartite	-0.1538093
-3.48879	bird	-0.9479612
-3.760385	birds	-0.2039293
-4.276299	birth	-0.1761324
-4.620268	bisheng	-0.1538092
-4.620268	bit	-0.1538093
-4.620268	bitter	-0.1538093
-4.620268	bjp	-0.1538093
-4.167383	black	-0.2754757
-3.724197	blackberry	-0.2373734
-4.509838	blackmail	-0.211928
-4.620268	blackmailing	-0.1538092
-4.509838	blasphemy	-0.1916785
-4.620268	blaze	-0.1538093
-4.422017	bleeding	-0.1538093
-3.945854	blind	-0.2084609
-4.167383	blindly	-0.1538093
-4.509838	blister	-0.1538093
-4.620268	blistering	-0.1538092
-4.422017	blisters	-0.1916785
-4.620268	block	-0.1538093
-4.620268	blockbuster	-0.1538092
-4.620268	blocked	-0.1538093
-4.620268	blocks	-0.1538093
-4.276299	bloemfontein	-0.1538092
-3.283472	blood	-0.2802904
-4.620268	blooded	-0.1538093
-4.167383	bloody	-0.1916785
-4.080379	bloom	-0.2417178
-4.620268	blooming	-0.1538093
-4.276299	blossom	-0.1538092
-4.620268	blossoming	-0.1538093
-4.620268	blossoms	-0.1538093
-4.080379	blue	-0.1676262
-4.509838	blueprint	-0.211928
-3.799863	bn	-0.2769868
-4.509838	bo	-0.1538093
-3.760385	board	-0.2145103
-4.509838	boarded	-0.1538092
-4.620268	boarding	-0.1538093
-4.620268	boat	-0.1538093
-4.276299	bob	-0.3520567
-4.620268	bobby	-0.1538093
-4.167383	bocog	-0.1818972
-4.167383	bodies	-0.1860622
-3.891553	body	-0.1734458
-4.509838	bold	-0.1538092
-4.276299	boldly	-0.1761324
-4.620268	boldness	-0.1538093
-4.509838	bolivia	-0.1538093
-4.620268	bolster	-0.1538092
-3.891553	bomb	-0.3459012
-4.620268	bonded	-0.1538093
-4.620268	bone	-0.1538093
-4.620268	bonus	-0.1538093
-4.007928	book	-0.2457102
-4.422017	books	-0.1818972
-4.080379	boost	-0.2640475
-4.620268	boosted	-0.1538093
-4.620268	boosting	-0.1538093
-4.509838	bora	-0.211928
-3.450174	border	-0.2129838
-4.276299	bordering	-0.1538093
-4.007928	borders	-0.1723313
-4.422017	born	-0.1761324
-4.509838	borovkov	-0.1761324
-4.509838	bosnia	-0.1916785
-4.422017	boss	-0.1916785
-3.213852	both	-0.3537317
-4.620268	bothered	-0.1538093
-4.620268	bottom	-0.1538093
-4.620268	bought	-0.1538093
-4.422017	bound	-0.1538092
-4.509838	boundaries	-0.1538093
-4.509838	boundary	-0.1538093
-4.620268	bowed	-0.1538093
-4.620268	bowl	-0.1538093
-4.276299	box	-0.1538093
-4.509838	boxer	-0.1916785
-4.422017	boxers	-0.211928
-3.799863	boxing	-0.360983
-4.620268	boycott	-0.1538093
-4.620268	boycotted	-0.1538093
-4.620268	bradley	-0.1538092
-3.843293	branch	-0.1734458
-4.276299	branches	-0.1538093
-4.080379	brand	-0.1538093
-4.509838	branded	-0.1538093
-4.276299	brands	-0.2075985
-4.620268	brannan	-0.1538093
-4.620268	brassard	-0.1538093
-4.620268	brave	-0.1538093
-4.620268	braved	-0.1538093
-4.509838	bravely	-0.1538093
-4.509838	braving	-0.1538092
-4.620268	brawl	-0.1538093
-4.620268	breach	-0.1538093
-4.422017	breached	-0.1538093
-4.620268	breaches	-0.1538093
-3.891553	break	-0.1784296
-4.276299	breaker	-0.1761324
-3.760385	breaking	-0.1808832
-4.509838	breakouts	-0.1538093
-4.509838	breaks	-0.1538093
-3.945854	breakthrough	-0.1988613
-4.080379	breakthroughs	-0.2031733
-4.620268	breath	-0.1538093
-4.620268	breathed	-0.1538093
-4.422017	breathing	-0.1818972
-4.620268	bred	-0.1538093
-4.620268	breeders	-0.1538093
-4.509838	breeds	-0.1538093
-4.509838	brick	-0.1916785
-4.620268	bridge	-0.1538093
-4.620268	bridges	-0.1538093
-4.509838	brief	-0.1538093
-4.620268	briefed	-0.1538093
-4.167383	briefing	-0.2090369
-4.422017	briefly	-0.1538093
-3.760385	brigade	-0.1993329
-4.276299	brigades	-0.1723313
-4.167383	bright	-0.1696364
-4.620268	brightening	-0.1538092
-4.620268	brightness	-0.1538092
-4.422017	brilliant	-0.1538093
-4.422017	brim	-0.1538093
-4.509838	brimmed	-0.1538093
-4.509838	brimming	-0.211928
-3.799863	bring	-0.1838009
-3.690795	bringing	-0.1920519
-4.509838	brings	-0.1538093
-4.080379	britain	-0.1861148
-3.554029	british	-0.258696
-4.167383	broad	-0.1538093
-4.620268	broadcast	-0.1538093
-4.422017	broadcasters	-0.1996654
-4.080379	broadcasting	-0.1538093
-4.620268	broadcasts	-0.1538093
-4.620268	broadened	-0.1538093
-4.620268	broader	-0.1538093
-4.620268	broadest	-0.1538093
-4.620268	broadly	-0.1538092
-3.843293	broke	-0.3800205
-3.891553	broken	-0.1740549
-4.620268	broker	-0.1538093
-4.620268	brokering	-0.1538092
-4.620268	bronze	-0.1538092
-3.48879	brought	-0.2230903
-4.620268	brown	-0.1538093
-4.620268	bruce	-0.1538093
-4.422017	brussels	-0.1818971
-4.620268	bucharest	-0.1538093
-4.620268	bud	-0.1538093
-4.620268	buddies	-0.1538093
-4.620268	budding	-0.1538093
-3.945854	budget	-0.3054845
-4.620268	buds	-0.1538093
-4.620268	buenes	-0.1538093
-4.509838	buenos	-0.211928
-4.620268	buffer	-0.1538093
-4.276299	build	-0.200704
-3.603693	building	-0.1822552
-4.509838	buildings	-0.1538093
-4.276299	builds	-0.1818972
-4.620268	buildup	-0.1538093
-3.891553	built	-0.1796709
-4.509838	buji	-0.211928
-4.620268	bulgaria	-0.1538093
-4.620268	bullet	-0.1538093
-4.422017	bulletin	-0.1916785
-4.620268	bulletproof	-0.1538093
-4.620268	bulletproofing	-0.1538093
-4.620268	bullets	-0.1538093
-4.509838	bullied	-0.211928
-4.422017	bundesliga	-0.1962944
-4.620268	bungalow	-0.1538093
-4.620268	burden	-0.1538093
-4.509838	burdens	-0.211928
-3.366424	bureau	-0.3733201
-4.509838	burgess	-0.1538092
-4.620268	burglaries	-0.1538093
-4.620268	burglary	-0.1538093
-4.007928	buried	-0.1945577
-4.620268	burned	-0.1538092
-4.422017	burning	-0.1916785
-4.620268	burnt	-0.1538093
-4.620268	burst	-0.1538093
-4.422017	bus	-0.1538093
-3.945854	bush	-0.1930125
-4.620268	bushila	-0.1538093
-4.509838	bushra	-0.1538093
-3.283472	business	-0.2177556
-3.945854	businesses	-0.1798716
-4.620268	businessman	-0.1538093
-4.620268	businessmen	-0.1538093
-4.509838	busy	-0.1538093
-3.163305	but	-0.2161404
-4.620268	button	-0.1538093
-4.620268	buttoned	-0.1538093
-4.620268	buy	-0.1538093
-4.620268	buyer	-0.1538093
-3.843293	buying	-0.1974152
-2.214468	by	-0.3774083
-4.620268	caa	-0.1538092
-3.843293	cabinet	-0.2008839
-4.620268	cable	-0.1538093
-4.276299	cables	-0.1916785
-4.422017	cabrera	-0.1818972
-4.620268	cadets	-0.1538093
-3.630831	cadre	-0.2977775
-3.224707	cadres	-0.4371281
-4.422017	cairo	-0.227118
-4.620268	cake	-0.1538093
-4.620268	cakes	-0.1538093
-4.620268	calamities	-0.1538093
-4.620268	calculate	-0.1538093
-4.620268	calculated	-0.1538093
-4.509838	calculation	-0.211928
-4.167383	calculations	-0.1962944
-3.799863	call	-0.1622598
-3.322971	called	-0.3911125
-4.620268	calligraphy	-0.1538092
-4.167383	calling	-0.2209781
-3.630831	calls	-0.4660431
-4.276299	calm	-0.1818972
-3.554029	came	-0.2634006
-4.167383	cameroon	-0.1916785
-4.620268	cameroonian	-0.1538093
-4.620268	camp	-0.1538093
-3.891553	campaign	-0.1792431
-4.509838	campaigns	-0.1538092
-4.620268	campgrounds	-0.1538093
-2.874412	can	-0.2994139
-4.276299	can't	-0.1538093
-4.509838	canada	-0.1916785
-4.509838	canadian	-0.211928
-4.620268	cancel	-0.1538093
-4.509838	canceled	-0.211928
-4.509838	canceling	-0.1538093
-4.620268	cancellation	-0.1538093
-3.945854	cancelled	-0.3098485
-4.620268	cancels	-0.1538093
-4.422017	cancer	-0.1676262
-4.167383	candidate	-0.176624
-4.007928	candidates	-0.1916785
-4.509838	candidly	-0.1538092
-4.509838	candies	-0.1538093
-4.422017	candy	-0.1883823
-4.509838	canning	-0.211928
-3.366424	cannot	-0.2096077
-4.167383	cao	-0.2209781
-4.167383	caosheng	-0.4489667
-4.167383	cap	-0.1660691
-3.799863	capabilities	-0.18306
-4.276299	capability	-0.2209781
-4.422017	capable	-0.227118
-4.620268	capacities	-0.1538093
-4.007928	capacity	-0.2007041
-4.509838	capillary	-0.1538092
-4.620268	capita	-0.1538093
-3.554029	capital	-0.2775069
-4.620268	capitalist	-0.1538093
-4.620268	capitals	-0.1538093
-4.080379	capote	-0.2007041
-4.509838	caps	-0.1538093
-4.620268	capture	-0.1538093
-3.690795	car	-0.234387
-4.509838	card	-0.1818972
-4.080379	cardiac	-0.1538093
-4.422017	cardiovascular	-0.1818972
-3.630831	care	-0.2224785
-4.422017	career	-0.1996654
-4.422017	careful	-0.1538092
-3.760385	carefully	-0.1592834
-4.509838	carers	-0.1538093
-4.276299	cargo	-0.1996654
-4.509838	caribbean	-0.211928
-4.509838	caring	-0.1538093
-4.422017	carphedon	-0.1916785
-4.620268	carphedron	-0.1538093
-3.509466	carried	-0.6569929
-4.422017	carrier	-0.1538093
-4.620268	carriers	-0.1538093
-4.080379	carries	-0.3836897
-3.450174	carry	-0.7857859
-3.366424	carrying	-0.7958702
-4.276299	cars	-0.1723313
-4.422017	cartoon	-0.1916785
-4.422017	cartoons	-0.1538093
-3.351451	case	-0.2335775
-3.398014	cases	-0.3197778
-4.007928	cash	-0.1818972
-4.422017	cast	-0.1538093
-4.422017	castellani	-0.1818972
-4.620268	casting	-0.1538093
-3.799863	castro	-0.1737057
-3.891553	casualties	-0.1877395
-4.620268	catabolic	-0.1538093
-4.509838	catabolism	-0.1538092
-4.509838	cataract	-0.1916785
-4.509838	catch	-0.1538093
-4.620268	catching	-0.1538093
-4.620268	categorically	-0.1538093
-4.276299	categories	-0.1818972
-4.509838	category	-0.1538093
-4.007928	catering	-0.2031985
-4.620268	causative	-0.1538093
-3.659779	cause	-0.1789784
-3.351451	caused	-0.4835499
-4.276299	causes	-0.1538093
-3.799863	causing	-0.1756511
-4.276299	caution	-0.1818972
-4.620268	cautionary	-0.1538093
-4.276299	cautious	-0.1818971
-4.509838	cautiously	-0.1538092
-4.080379	cbrc	-0.1747031
-4.276299	cbs	-0.2075985
-4.276299	ccp	-0.1818972
-4.509838	cease	-0.211928
-4.276299	ceasefire	-0.2754757
-4.509838	ceding	-0.1538093
-4.422017	ceiling	-0.1538093
-4.620268	celebrate	-0.1538093
-4.620268	celebrated	-0.1538093
-4.620268	celebrates	-0.1538093
-4.509838	celebrating	-0.211928
-4.422017	celebration	-0.1916785
-4.620268	celebratory	-0.1538093
-4.276299	cell	-0.1538093
-4.509838	cellphone	-0.1538093
-4.509838	cellphones	-0.1538093
-4.080379	cells	-0.1873782
-4.509838	celsius	-0.1916785
-4.620268	cement	-0.1538093
-4.276299	censorship	-0.1723313
-4.620268	cent	-0.1538093
-4.422017	centennial	-0.1761324
-3.554029	center	-0.3238
-4.620268	centered	-0.1538093
-4.167383	centers	-0.1761324
-3.414714	central	-0.2566522
-4.620268	centralism	-0.1538093
-4.620268	centralization	-0.1538093
-4.167383	centralized	-0.1761324
-4.509838	centrally	-0.1538092
-4.509838	centre	-0.1538093
-4.509838	centrifuges	-0.1916785
-4.422017	century	-0.1945577
-4.620268	ceo	-0.1538092
-4.620268	cerc	-0.1538092
-3.891553	ceremonial	-0.3045085
-4.509838	ceremonies	-0.1538093
-3.554029	ceremony	-0.2813472
-3.891553	certain	-0.1750429
-4.422017	certainly	-0.1538093
-4.167383	certificate	-0.1916785
-4.167383	certificates	-0.2007041
-4.620268	cession	-0.1538093
-4.276299	chain	-0.1538093
-4.007928	chair	-0.5950947
-4.620268	chairing	-0.1538092
-3.603693	chairman	-0.3775555
-4.509838	chairperson	-0.211928
-4.620268	chairs	-0.1538093
-4.620268	chairwoman	-0.1538093
-4.007928	challenge	-0.1877395
-4.167383	challenges	-0.1860964
-4.509838	chamber	-0.211928
-4.509838	champion	-0.211928
-4.007928	championship	-0.2537138
-4.620268	championships	-0.1538093
-4.080379	chance	-0.2007041
-4.620268	chances	-0.1538092
-4.276299	chang	-0.3520567
-4.509838	changcheng	-0.211928
-4.422017	changchun	-0.1916785
-3.659779	change	-0.2031225
-3.891553	changed	-0.1933214
-3.659779	changes	-0.4389099
-4.422017	changing	-0.1538093
-4.509838	changming	-0.1916785
-4.276299	channel	-0.1818972
-4.167383	channels	-0.1966531
-4.509838	chaos	-0.1538092
-4.276299	chaotic	-0.1538093
-4.276299	chapters	-0.2031338
-4.007928	character	-0.1818972
-4.620268	characteristic	-0.1538093
-4.080379	characteristics	-0.1966531
-4.422017	characterization	-0.227118
-4.620268	characterized	-0.1538093
-4.620268	charcoal	-0.1538092
-3.945854	charge	-0.1818972
-3.760385	charged	-0.2451579
-4.007928	charges	-0.1696364
-4.276299	charging	-0.1538093
-4.620268	charitable	-0.1538093
-4.620268	charity	-0.1538092
-4.509838	chartered	-0.1916785
-4.620268	chase	-0.1538093
-4.620268	chased	-0.1538092
-4.509838	chat	-0.211928
-4.422017	chauffeur	-0.1538092
-4.509838	chavez	-0.1538093
-4.509838	cheap	-0.211928
-4.620268	cheated	-0.1538093
-4.620268	cheaters	-0.1538093
-4.509838	cheating	-0.211928
-4.167383	check	-0.1538093
-4.620268	checked	-0.1538093
-4.509838	checking	-0.211928
-4.276299	checks	-0.1761324
-4.620268	checkup	-0.1538092
-4.620268	checkups	-0.1538092
-4.620268	cheeked	-0.1538092
-4.422017	cheerfully	-0.1538093
-4.620268	cheering	-0.1538092
-4.620268	chef	-0.1538093
-4.620268	chefs	-0.1538093
-4.620268	cheju	-0.1538093
-4.007928	chelsea	-0.2355941
-4.509838	chemical	-0.1538093
-4.620268	chemicals	-0.1538093
-4.620268	chemistry	-0.1538093
-3.271066	chen	-0.4898419
-4.509838	cheng	-0.1538093
-4.167383	chengdu	-0.2393693
-4.620268	chengsen	-0.1538093
-4.620268	chengtai	-0.1538093
-4.509838	chengze	-0.1916785
-4.620268	chengzeyuan	-0.1538092
-4.509838	cherish	-0.1538093
-4.620268	cherishing	-0.1538093
-4.422017	chest	-0.1723313
-4.620268	chests	-0.1538092
-3.945854	chicken	-0.1818972
-4.509838	chickens	-0.1761324
-3.450174	chief	-0.2491858
-4.620268	chiefs	-0.1538093
-4.620268	chih	-0.1538093
-4.620268	child	-0.1538093
-4.509838	children	-0.1538093
-4.167383	chile	-0.1726072
-4.276299	chilean	-0.1696364
-4.509838	chimes	-0.1916785
-4.620268	chin	-0.1538093
-2.819194	china	-0.3927694
-4.167383	chinanews	-0.4489667
-3.054178	chinese	-0.2383472
-4.620268	chip	-0.1538093
-4.620268	chipmakers	-0.1538093
-4.007928	choice	-0.18306
-4.620268	choking	-0.1538093
-4.509838	chol	-0.1860622
-4.080379	choose	-0.1945577
-4.620268	chooses	-0.1538093
-4.509838	choosing	-0.1538093
-4.620268	chose	-0.1538093
-4.509838	chosen	-0.1538093
-4.509838	chromosome	-0.1538093
-4.422017	chronic	-0.1916785
-4.620268	chu	-0.1538093
-4.620268	chun	-0.1538092
-4.620268	chunbin	-0.1538093
-4.620268	chunqiou	-0.1538093
-4.620268	chunqiu	-0.1538093
-4.509838	chávez	-0.1538093
-4.276299	cia	-0.1538093
-4.620268	cilitheroe	-0.1538093
-4.276299	circle	-0.2159252
-4.422017	circles	-0.1860622
-4.509838	circuit	-0.1538093
-4.509838	circuitry	-0.211928
-4.509838	circuits	-0.211928
-4.509838	circulation	-0.1538093
-4.620268	circumference	-0.1538093
-3.945854	circumstances	-0.2470397
-4.620268	circumvented	-0.1538093
-4.620268	cis	-0.1538093
-4.509838	citation	-0.1538093
-4.620268	cited	-0.1538092
-4.620268	cites	-0.1538093
-3.659779	cities	-0.2197771
-4.276299	citizen	-0.1538093
-3.630831	citizens	-0.2852075
-3.203261	city	-0.3472814
-4.620268	civic	-0.1538093
-3.891553	civil	-0.2274891
-4.167383	civilian	-0.1538093
-4.509838	civilians	-0.211928
-4.509838	civility	-0.211928
-4.007928	civilization	-0.1786851
-4.007928	civilized	-0.1622598
-4.276299	claim	-0.1538093
-3.945854	claimed	-0.2769868
-4.509838	claiming	-0.1538092
-4.422017	claims	-0.1538093
-4.422017	clarification	-0.1916785
-4.422017	clarified	-0.1538093
-4.509838	clarifies	-0.211928
-4.422017	clarify	-0.1916785
-4.422017	clarifying	-0.227118
-4.509838	clash	-0.1538092
-4.422017	clashes	-0.1916785
-4.620268	clasped	-0.1538093
-3.945854	class	-0.1818972
-4.422017	classes	-0.1538093
-4.509838	clause	-0.1538093
-4.422017	clay	-0.1818972
-4.422017	clean	-0.1818972
-3.891553	cleaning	-0.3045085
-4.620268	cleanup	-0.1538092
-4.007928	clear	-0.1538092
-4.422017	cleared	-0.1538093
-4.509838	clearing	-0.211928
-3.690795	clearly	-0.1648274
-4.620268	clerk	-0.1538093
-4.509838	clerks	-0.1538092
-4.620268	click	-0.1538093
-4.620268	client	-0.1538093
-4.509838	clients	-0.1538092
-4.620268	climate	-0.1538093
-4.422017	climbed	-0.227118
-4.620268	climbing	-0.1538093
-4.276299	clinic	-0.1538093
-4.167383	clinical	-0.1962944
-4.509838	clinically	-0.1538093
-4.422017	clinics	-0.1723313
-4.620268	clitheroe	-0.1538093
-4.620268	clock	-0.1538093
-3.554029	close	-0.2190497
-3.659779	closed	-0.1851332
-3.799863	closely	-0.1827496
-4.620268	closer	-0.1538092
-4.620268	closes	-0.1538093
-4.620268	closing	-0.1538093
-4.509838	closings	-0.1538093
-4.276299	closure	-0.1818972
-4.422017	closures	-0.1538093
-4.422017	clothes	-0.1538093
-3.690795	clothing	-0.2862739
-4.276299	club	-0.1761324
-4.620268	clubs	-0.1538093
-4.620268	clue	-0.1538093
-4.509838	clutches	-0.211928
-4.620268	cm	-0.1538093
-4.620268	cn	-0.1538093
-4.276299	co	-0.3520567
-3.799863	co.	-0.4368294
-3.891553	coach	-0.2274891
-4.276299	coaching	-0.2075985
-3.469053	coal	-0.3420382
-4.620268	coalition	-0.1538093
-4.167383	coalmine	-0.1996654
-4.007928	coalmines	-0.1538093
-4.620268	coals	-0.1538092
-4.620268	coasts	-0.1538093
-4.509838	coats	-0.1538093
-3.891553	code	-0.1979766
-4.422017	coded	-0.1916785
-4.509838	codes	-0.1538093
-4.620268	coercive	-0.1538093
-4.620268	coexistence	-0.1538093
-4.620268	coke	-0.1538093
-4.167383	cold	-0.1962945
-4.509838	collaborate	-0.1538093
-4.080379	collaboration	-0.1889187
-4.509838	collaborations	-0.211928
-4.620268	collaborative	-0.1538093
-4.509838	collapse	-0.1538093
-4.167383	collapsed	-0.1860622
-4.620268	collapses	-0.1538093
-4.167383	collar	-0.1676262
-4.620268	colleagues	-0.1538093
-4.509838	collect	-0.1538093
-3.799863	collected	-0.2208486
-4.276299	collecting	-0.1818972
-4.422017	collection	-0.1761324
-3.945854	collective	-0.1898367
-4.276299	collectively	-0.1818972
-4.620268	collector	-0.1538093
-4.620268	collects	-0.1538092
-3.945854	college	-0.1761324
-4.509838	colleges	-0.211928
-4.620268	collide	-0.1538093
-4.276299	collided	-0.1538092
-4.620268	colliding	-0.1538093
-4.276299	collision	-0.1538093
-4.620268	colombia	-0.1538092
-4.276299	colombian	-0.1889187
-4.422017	colombo	-0.1818971
-4.422017	colonel	-0.1818972
-4.080379	color	-0.1860622
-4.509838	colored	-0.1538093
-4.509838	colorful	-0.1538093
-4.509838	colors	-0.1538093
-4.620268	colossal	-0.1538093
-4.620268	columbia	-0.1538093
-4.509838	columbian	-0.1538093
-4.620268	column	-0.1538093
-4.620268	com	-0.1538093
-4.620268	coma	-0.1538093
-4.620268	comatose	-0.1538092
-3.945854	combat	-0.2754757
-4.509838	combating	-0.1538093
-4.620268	combed	-0.1538093
-4.509838	combination	-0.1538093
-4.509838	combine	-0.211928
-4.276299	combined	-0.1538093
-4.620268	combining	-0.1538093
-3.469053	come	-0.3000775
-4.276299	comes	-0.1538093
-4.620268	comfort	-0.1538093
-4.509838	comfortable	-0.211928
-3.690795	coming	-0.1991818
-4.422017	command	-0.1638141
-4.509838	commanded	-0.211928
-4.080379	commander	-0.2031733
-4.620268	commence	-0.1538093
-4.167383	commenced	-0.1538093
-4.620268	commendation	-0.1538093
-4.620268	commended	-0.1538093
-4.620268	commending	-0.1538093
-4.620268	comment	-0.1538093
-4.509838	commentary	-0.1538093
-4.620268	commented	-0.1538093
-4.620268	commenting	-0.1538093
-3.843293	comments	-0.2451579
-4.620268	commerce	-0.1538093
-3.760385	commercial	-0.2608473
-4.509838	commissar	-0.211928
-3.578152	commission	-0.2116724
-4.509838	commissioned	-0.1916785
-4.080379	commissioner	-0.1676262
-4.509838	commit	-0.1538092
-4.509838	commitment	-0.211928
-4.620268	commitments	-0.1538093
-4.620268	committe	-0.1538093
-4.080379	committed	-0.3836897
-3.213852	committee	-0.3200193
-4.276299	committees	-0.2754757
-3.945854	common	-0.1538093
-4.422017	commoners	-0.1916785
-4.509838	commonly	-0.1916785
-4.620268	commonplace	-0.1538093
-4.620268	commonwealth	-0.1538093
-4.620268	communicate	-0.1538093
-4.620268	communicated	-0.1538093
-4.620268	communicating	-0.1538093
-3.891553	communication	-0.1723313
-4.620268	communicational	-0.1538093
-4.276299	communications	-0.1538093
-4.422017	communique	-0.1818972
-4.509838	communist	-0.1538093
-4.422017	communities	-0.1860622
-3.945854	community	-0.18306
-4.620268	compact	-0.1538093
-4.007928	companies	-0.1784297
-3.283472	company	-0.2686183
-4.620268	comparable	-0.1538092
-4.620268	comparatively	-0.1538093
-3.578152	compared	-0.829178
-4.620268	comparing	-0.1538093
-4.620268	comparison	-0.1538093
-4.620268	comparisons	-0.1538093
-4.276299	compassion	-0.1538093
-4.509838	compassionate	-0.1538093
-4.620268	compatriot	-0.1538093
-4.007928	compatriots	-0.1873782
-3.760385	compensation	-0.1808832
-4.509838	compensations	-0.1538092
-4.509838	compete	-0.1696364
-4.620268	competed	-0.1538093
-4.422017	competence	-0.1916785
-4.509838	competency	-0.1538093
-4.167383	competent	-0.2090369
-4.509838	competing	-0.211928
-3.469053	competition	-0.2237959
-4.007928	competitions	-0.1676262
-4.276299	competitive	-0.1761324
-4.509838	competitiveness	-0.1818972
-4.509838	competitor	-0.1538093
-4.620268	competitors	-0.1538093
-4.509838	compilation	-0.211928
-4.422017	compiled	-0.1916785
-4.509838	complained	-0.211928
-4.620268	complains	-0.1538092
-4.276299	complaint	-0.1723313
-4.276299	complaints	-0.1538092
-3.891553	complete	-0.1654151
-4.080379	completed	-0.1538093
-3.48879	completely	-0.1671353
-4.620268	completeness	-0.1538093
-4.422017	completing	-0.1916785
-4.167383	completion	-0.2558655
-4.422017	complex	-0.1538093
-4.422017	compliance	-0.1916785
-4.167383	complicated	-0.1916785
-4.620268	complications	-0.1538093
-4.620268	complied	-0.1538093
-4.620268	complies	-0.1538093
-4.620268	comply	-0.1538093
-4.620268	complying	-0.1538093
-4.422017	component	-0.1916785
-3.945854	components	-0.4004144
-4.167383	composed	-0.3836897
-4.620268	compound	-0.1538093
-3.945854	comprehensive	-0.1734458
-4.620268	comprehensively	-0.1538093
-4.620268	comprised	-0.1538093
-4.167383	compromise	-0.1805458
-4.620268	compromises	-0.1538093
-4.620268	compulsory	-0.1538093
-4.509838	computation	-0.211928
-4.620268	computational	-0.1538093
-4.620268	computer	-0.1538093
-4.080379	computers	-0.1902964
-4.422017	comrades	-0.1916785
-4.620268	conceal	-0.1538093
-4.620268	conceded	-0.1538093
-4.080379	concentrated	-0.1648274
-4.422017	concentration	-0.1916785
-4.620268	concentrations	-0.1538093
-4.167383	concept	-0.2090369
-4.620268	conception	-0.1538093
-4.276299	concepts	-0.1996654
-3.659779	concern	-0.1949819
-3.531176	concerned	-0.2155924
-3.630831	concerning	-0.2691914
-4.167383	concerns	-0.1538093
-4.620268	concerted	-0.1538092
-4.509838	concession	-0.211928
-4.620268	conciliatory	-0.1538093
-4.620268	conclude	-0.1538093
-3.891553	concluded	-0.1860964
-4.620268	concluding	-0.1538092
-4.007928	conclusion	-0.2609104
-4.422017	conclusions	-0.1818972
-4.620268	concocting	-0.1538093
-4.620268	concomitant	-0.1538093
-3.945854	concrete	-0.1668011
-3.945854	concurrent	-0.2355942
-4.080379	concurrently	-0.1538093
-4.620268	condemn	-0.1538093
-4.620268	condemning	-0.1538093
-4.007928	condition	-0.1660691
-4.620268	conditioning	-0.1538093
-3.432082	conditions	-0.3479279
-4.080379	condolences	-0.1676262
-4.620268	conducive	-0.1538093
-3.799863	conduct	-0.1675143
-3.690795	conducted	-0.1827496
-4.007928	conducting	-0.1660691
-4.509838	conducts	-0.1538093
-4.620268	confederation	-0.1538093
-4.620268	confer	-0.1538093
-3.603693	conference	-0.2449301
-4.509838	conferences	-0.1538093
-4.620268	conferred	-0.1538093
-4.509838	conferring	-0.1538093
-4.509838	confers	-0.1538093
-4.620268	confess	-0.1538092
-4.509838	confession	-0.1538093
-4.276299	confessions	-0.1916785
-4.620268	confidant	-0.1538093
-4.276299	confidence	-0.1538092
-4.276299	confident	-0.1538093
-3.891553	confidential	-0.176624
-4.509838	confidentially	-0.1538093
-4.509838	confirm	-0.1538093
-4.276299	confirmation	-0.1761324
-3.469053	confirmed	-0.2676722
-4.509838	confirming	-0.1538093
-4.620268	confirms	-0.1538093
-4.620268	confiscated	-0.1538093
-3.690795	conflict	-0.2077311
-4.509838	conflicts	-0.1818972
-4.620268	conform	-0.1538093
-4.620268	conforming	-0.1538093
-4.620268	confront	-0.1538093
-4.620268	confrontation	-0.1538093
-4.620268	confrontations	-0.1538093
-4.620268	confronted	-0.1538093
-4.620268	confronting	-0.1538093
-4.620268	confusing	-0.1538093
-4.620268	confusion	-0.1538093
-4.620268	confusions	-0.1538093
-4.620268	cong	-0.1538093
-4.422017	congenital	-0.1538093
-4.620268	congenitalis	-0.1538093
-3.843293	congress	-0.2288204
-4.509838	congresses	-0.1538093
-4.509838	congressional	-0.211928
-4.167383	congressmen	-0.1696364
-4.509838	conjecture	-0.1538093
-4.620268	conjunction	-0.1538093
-4.509838	connect	-0.1538093
-4.080379	connected	-0.2558654
-4.509838	connecting	-0.1538093
-4.422017	connection	-0.1916785
-4.620268	connections	-0.1538093
-4.509838	connects	-0.1538093
-4.422017	conscientiously	-0.1538093
-4.620268	conscious	-0.1538093
-4.620268	consciously	-0.1538093
-3.945854	consciousness	-0.2738487
-4.080379	consensus	-0.2417178
-4.509838	consent	-0.1538093
-4.509838	consequences	-0.211928
-4.620268	consequential	-0.1538093
-4.620268	consequentially	-0.1538093
-4.509838	consequently	-0.1538093
-3.891553	consider	-0.2057714
-4.509838	considerable	-0.1538093
-3.945854	consideration	-0.1660691
-4.422017	considerations	-0.1818971
-4.080379	considered	-0.1786851
-4.276299	considering	-0.1996654
-4.620268	consistence	-0.1538093
-4.422017	consistent	-0.1916785
-3.945854	consistently	-0.1629715
-4.509838	consisting	-0.211928
-4.007928	consists	-0.3424225
-4.620268	consolidate	-0.1538092
-4.167383	consolidated	-0.1538093
-4.509838	consolidation	-0.211928
-4.422017	conspicuous	-0.1538092
-4.509838	conspicuously	-0.211928
-4.620268	conspiring	-0.1538093
-4.620268	constable	-0.1538093
-4.509838	constant	-0.1538093
-3.945854	constantly	-0.1676262
-4.620268	constituencies	-0.1538093
-4.422017	constitute	-0.1538093
-4.422017	constitution	-0.1761324
-4.509838	constrained	-0.1538092
-4.620268	construct	-0.1538093
-4.620268	constructed	-0.1538093
-4.422017	constructing	-0.1916785
-3.48879	construction	-0.3295608
-4.422017	constructions	-0.1538093
-4.167383	constructive	-0.1538092
-4.509838	consul	-0.1538093
-4.422017	consular	-0.227118
-4.509838	consulate	-0.1916785
-4.509838	consuls	-0.1538093
-4.422017	consultant	-0.1916785
-4.620268	consultants	-0.1538093
-3.724197	consultation	-0.1937706
-3.945854	consultations	-0.1818972
-4.509838	consultative	-0.1538093
-4.620268	consulted	-0.1538093
-4.422017	consulters	-0.211928
-4.167383	consulting	-0.1761324
-3.469053	consumer	-0.2672178
-4.620268	consumerism	-0.1538093
-3.630831	consumers	-0.3345428
-4.620268	consuming	-0.1538093
-3.843293	consumption	-0.1916785
-3.724197	contact	-0.2000347
-4.422017	contacted	-0.1916785
-4.422017	contacts	-0.1723313
-4.276299	contain	-0.1538093
-4.007928	contained	-0.1538093
-4.509838	container	-0.211928
-4.276299	containers	-0.3520567
-4.007928	containing	-0.1786851
-4.509838	containment	-0.211928
-4.276299	contains	-0.1761324
-4.509838	contamination	-0.1538093
-4.422017	contemporary	-0.1916785
-4.620268	contempt	-0.1538093
-4.080379	content	-0.1898367
-4.620268	contention	-0.1538093
-4.276299	contents	-0.1538093
-4.422017	contest	-0.1837259
-4.509838	contestants	-0.1538093
-4.620268	context	-0.1538093
-4.620268	continent	-0.1538093
-4.620268	contingency	-0.1538092
-4.422017	contingent	-0.1538093
-4.167383	continually	-0.1538093
-4.620268	continuance	-0.1538092
-3.450174	continue	-0.431219
-3.799863	continued	-0.4521601
-4.276299	continues	-0.2075985
-4.080379	continuous	-0.1638141
-3.578152	continuously	-0.1757319
-4.007928	contract	-0.1792431
-4.007928	contracted	-0.1676262
-4.620268	contracting	-0.1538092
-4.509838	contracts	-0.1538093
-4.276299	contradictions	-0.1538093
-4.422017	contrary	-0.1916785
-4.620268	contrast	-0.1538093
-4.620268	contrasting	-0.1538093
-4.620268	contravened	-0.1538093
-4.620268	contravening	-0.1538093
-4.620268	contribute	-0.1538093
-4.620268	contributed	-0.1538093
-4.620268	contributing	-0.1538093
-4.276299	contribution	-0.1818972
-4.276299	contributions	-0.3001593
-4.620268	contributory	-0.1538093
-3.092974	control	-0.3377187
-4.509838	controllable	-0.1538093
-3.843293	controlled	-0.1761324
-3.945854	controlling	-0.1945577
-4.167383	controls	-0.1723313
-4.276299	controversy	-0.3520567
-4.509838	convene	-0.211928
-4.620268	convenes	-0.1538093
-4.620268	convenience	-0.1538093
-3.945854	convenient	-0.2012822
-4.620268	convening	-0.1538093
-4.422017	conventional	-0.1538093
-4.167383	conversation	-0.2209781
-4.620268	conversations	-0.1538093
-4.620268	conveyer	-0.1538093
-4.620268	conviction	-0.1538093
-4.620268	convince	-0.1538093
-4.422017	convincing	-0.1818972
-4.620268	cool	-0.1538092
-4.620268	cools	-0.1538092
-3.891553	cooperate	-0.2914677
-4.422017	cooperating	-0.227118
-3.118033	cooperation	-0.4780579
-3.945854	cooperative	-0.1979766
-4.509838	coordinate	-0.211928
-4.276299	coordinated	-0.1538093
-4.509838	coordinating	-0.211928
-3.760385	coordination	-0.1996654
-4.620268	coordinator	-0.1538093
-4.620268	coordinators	-0.1538092
-4.422017	copa	-0.227118
-4.422017	cope	-0.227118
-4.509838	coped	-0.211928
-4.620268	copies	-0.1538093
-4.276299	copper	-0.1723313
-4.620268	copy	-0.1538093
-4.422017	copyright	-0.1538093
-4.620268	copyrighting	-0.1538093
-4.276299	core	-0.1538093
-4.620268	corner	-0.1538093
-4.620268	cornered	-0.1538093
-4.620268	corners	-0.1538093
-4.620268	coroner	-0.1538093
-4.080379	corp	-0.3836897
-4.620268	corporate	-0.1538093
-3.891553	corporation	-0.1768974
-4.620268	corporations	-0.1538093
-3.945854	correct	-0.1761324
-4.620268	corrected	-0.1538092
-4.620268	correcting	-0.1538093
-4.620268	correction	-0.1538093
-4.422017	corrections	-0.1916785
-4.167383	correctly	-0.1761324
-4.620268	correlated	-0.1538093
-4.620268	correlating	-0.1538093
-4.509838	correspondence	-0.1538093
-4.620268	correspondences	-0.1538093
-3.945854	correspondent	-0.1777968
-4.080379	correspondents	-0.1648274
-3.799863	corresponding	-0.1696364
-4.620268	corridor	-0.1538093
-4.620268	corrupt	-0.1538092
-4.276299	corruption	-0.1889186
-4.007928	cost	-0.1538093
-4.620268	costa	-0.1538093
-4.509838	costs	-0.1538093
-4.422017	costumes	-0.1761324
-4.509838	cotton	-0.1916785
-4.509838	coughlan	-0.1538093
-3.192922	could	-0.3260986
-4.620268	couldn't	-0.1538093
-3.554029	council	-0.2611656
-4.620268	councilor	-0.1538093
-4.167383	counseling	-0.1889186
-4.276299	counselor	-0.2075985
-4.620268	counselors	-0.1538093
-4.167383	countdown	-0.1761324
-4.620268	countenance	-0.1538093
-4.007928	counter	-0.1761324
-4.620268	counterclaim	-0.1538093
-4.620268	counterclaims	-0.1538093
-4.620268	countered	-0.1538093
-4.620268	countermeasure	-0.1538093
-4.167383	countermeasures	-0.2558655
-4.620268	countersued	-0.1538092
-4.276299	countersuit	-0.1723313
-4.620268	counties	-0.1538093
-3.213852	countries	-0.2942558
-3.271066	country	-0.3590065
-4.620268	countryman	-0.1538093
-4.167383	countrymen	-0.1538092
-4.276299	countryside	-0.1922558
-3.603693	county	-0.2417178
-4.167383	coup	-0.1768974
-4.620268	couple	-0.1538093
-4.509838	couplet	-0.1538093
-4.509838	courage	-0.1916785
-4.509838	courageous	-0.1538093
-3.843293	course	-0.2153079
-4.509838	courses	-0.1538092
-3.450174	court	-0.2144785
-4.509838	courteous	-0.1538093
-4.509838	courtesy	-0.211928
-4.620268	courts	-0.1538093
-3.891553	cover	-0.1805458
-4.509838	coverage	-0.1538092
-3.760385	covered	-0.2208486
-4.007928	covering	-0.2031733
-4.167383	covers	-0.1761324
-4.620268	covert	-0.1538092
-4.422017	cows	-0.1818972
-4.422017	cpc	-0.1761324
-4.620268	cppcc	-0.1538093
-4.276299	crack	-0.1818972
-4.620268	crackdown	-0.1538093
-4.422017	cracked	-0.1538093
-4.620268	cracks	-0.1538093
-4.422017	craddock	-0.1538093
-4.509838	crafts	-0.211928
-4.276299	crash	-0.1818972
-4.422017	crashed	-0.1889187
-4.620268	creamy	-0.1538093
-4.080379	create	-0.1898367
-3.945854	created	-0.1945577
-4.620268	creates	-0.1538093
-3.799863	creating	-0.1696617
-4.167383	creation	-0.1538092
-4.620268	creative	-0.1538092
-4.620268	creatively	-0.1538093
-4.620268	creativity	-0.1538092
-4.620268	creator	-0.1538093
-4.620268	creatures	-0.1538093
-4.620268	credible	-0.1538093
-4.509838	credit	-0.1538093
-4.509838	creditor	-0.1538093
-4.620268	crew	-0.1538092
-4.007928	crime	-0.1660691
-4.509838	crimes	-0.1538093
-3.554029	criminal	-0.2399943
-4.422017	criminals	-0.1538093
-4.509838	crisis	-0.1538092
-4.620268	crisp	-0.1538092
-4.422017	criteria	-0.227118
-4.422017	critical	-0.1538093
-4.620268	critically	-0.1538093
-4.007928	criticism	-0.1898367
-4.509838	criticisms	-0.211928
-4.276299	criticize	-0.1818972
-4.276299	criticized	-0.1818971
-4.276299	criticizes	-0.1818972
-4.509838	criticizing	-0.2119281
-4.509838	croatia	-0.1916785
-4.620268	croatian	-0.1538093
-4.620268	crook	-0.1538093
-4.620268	crops	-0.1538093
-4.276299	cross	-0.3520567
-4.509838	crossed	-0.211928
-4.620268	crowd	-0.1538093
-4.620268	crowds	-0.1538093
-4.422017	crucial	-0.1916785
-4.620268	crude	-0.1538093
-4.509838	crush	-0.1538093
-4.620268	cry	-0.1538092
-3.48879	cuba	-0.2608599
-3.799863	cuban	-0.1713365
-4.509838	cuffs	-0.211928
-4.509838	cui	-0.211928
-4.620268	cull	-0.1538093
-4.620268	culled	-0.1538093
-4.620268	culpable	-0.1538093
-4.620268	culprit	-0.1538093
-4.620268	culprits	-0.1538093
-4.620268	cultivate	-0.1538093
-4.276299	cultivated	-0.2075985
-4.620268	cultivating	-0.1538092
-3.891553	cultivation	-0.1745325
-3.509466	cultural	-0.3070505
-3.690795	culture	-0.3238
-4.509838	cultured	-0.1538093
-4.422017	cup	-0.1877395
-4.620268	curb	-0.1538093
-4.620268	curbed	-0.1538093
-4.509838	curbing	-0.211928
-4.509838	cure	-0.1538092
-4.422017	curled	-0.1916785
-4.509838	currencies	-0.1761324
-4.509838	currency	-0.1538093
-3.690795	current	-0.1714104
-3.336978	currently	-0.1778805
-4.620268	curtailing	-0.1538093
-4.620268	curved	-0.1538092
-4.276299	customer	-0.1538093
-4.007928	customers	-0.1676262
-4.080379	customs	-0.1818972
-3.891553	cut	-0.1753317
-4.276299	cuts	-0.3520567
-4.620268	cutting	-0.1538093
-4.620268	cyan	-0.1538093
-4.422017	cyanotic	-0.2075985
-4.509838	cypress	-0.211928
-4.620268	cypresses	-0.1538093
-4.620268	d'affaires	-0.1538093
-4.620268	d'etat	-0.1538092
-4.620268	d'état	-0.1538092
-4.620268	d.	-0.1538093
-4.620268	dabble	-0.1538093
-3.603693	daily	-0.1808978
-4.620268	dairy	-0.1538092
-4.167383	dalian	-0.1916785
-4.080379	dam	-0.2754757
-4.422017	damage	-0.1538093
-4.509838	damaged	-0.1916785
-4.167383	damages	-0.1538093
-4.620268	damaging	-0.1538093
-4.620268	damp	-0.1538092
-4.620268	dampness	-0.1538093
-4.422017	dams	-0.1538092
-4.620268	dance	-0.1538093
-4.620268	dang	-0.1538093
-4.422017	danger	-0.1761324
-4.422017	dangerous	-0.1916785
-4.620268	dangers	-0.1538093
-4.509838	danish	-0.1538092
-4.620268	danube	-0.1538092
-4.167383	dare	-0.4489667
-4.620268	dared	-0.1538093
-4.422017	dares	-0.227118
-4.422017	dark	-0.1916785
-3.432082	data	-0.2514406
-4.080379	date	-0.1916785
-4.620268	dating	-0.1538092
-4.509838	dawn	-0.1538093
-3.48879	day	-0.2546791
-3.578152	days	-0.326881
-4.620268	dazzling	-0.1538092
-4.620268	dc	-0.1538092
-4.080379	de	-0.1538092
-3.554029	dead	-0.2153472
-4.007928	deadline	-0.1937706
-4.167383	deadlock	-0.258696
-4.620268	deadly	-0.1538093
-4.007928	deal	-0.4506365
-4.509838	dealer	-0.1538093
-4.422017	dealing	-0.227118
-4.620268	dealt	-0.1538093
-3.578152	death	-0.2760482
-3.630831	deaths	-0.2303507
-4.620268	debris	-0.1538093
-3.891553	debt	-0.1965151
-4.080379	debts	-0.2158568
-4.620268	decade	-0.1538093
-4.167383	decades	-0.1996654
-4.620268	deceased	-0.1538093
-4.620268	decelerated	-0.1538093
-4.620268	deceleration	-0.1538093
-4.276299	december	-0.1696364
-4.167383	decide	-0.1962944
-3.283472	decided	-0.629829
-4.509838	decides	-0.1538093
-4.422017	deciding	-0.1916785
-3.690795	decision	-0.2811968
-3.843293	decisions	-0.2336234
-4.276299	declaration	-0.1538093
-4.620268	declarations	-0.1538093
-4.422017	declare	-0.1538093
-4.167383	declared	-0.1538092
-4.509838	declares	-0.1538093
-4.620268	declination	-0.1538092
-4.080379	decline	-0.258751
-4.422017	declined	-0.1538093
-4.620268	declines	-0.1538093
-4.422017	declining	-0.1538093
-4.276299	decode	-0.3520567
-4.422017	decompose	-0.1916785
-4.620268	decorated	-0.1538093
-4.509838	decoration	-0.1538093
-4.620268	decorations	-0.1538093
-4.620268	decorative	-0.1538093
-3.891553	decrease	-0.1708781
-4.167383	decreased	-0.1538093
-4.167383	decreases	-0.1761324
-4.620268	decreasing	-0.1538093
-4.276299	decree	-0.1538093
-4.620268	decrees	-0.1538093
-4.620268	dedicate	-0.1538093
-4.620268	dedicated	-0.1538093
-4.620268	deduce	-0.1538093
-4.509838	deeds	-0.1538093
-4.080379	deep	-0.1538093
-4.276299	deepen	-0.1538093
-4.276299	deepened	-0.1761324
-4.422017	deepening	-0.1538093
-4.620268	deepens	-0.1538093
-4.620268	deeper	-0.1538092
-3.843293	deeply	-0.1860964
-4.620268	default	-0.1538093
-4.509838	defects	-0.1538092
-4.620268	defend	-0.1538093
-4.509838	defendant	-0.1761324
-4.620268	defendants	-0.1538093
-3.336978	defense	-0.1972288
-4.509838	defensive	-0.1538093
-4.620268	defer	-0.1538093
-4.422017	deferred	-0.1538093
-4.422017	defiant	-0.1761324
-4.509838	deficiencies	-0.211928
-4.620268	deficiency	-0.1538093
-4.509838	deficit	-0.1538093
-4.509838	define	-0.1538092
-4.509838	defined	-0.1538093
-4.620268	defines	-0.1538093
-4.620268	definite	-0.1538093
-4.167383	definitely	-0.1708781
-4.509838	definition	-0.1916785
-4.620268	definitively	-0.1538093
-4.509838	defrauding	-0.211928
-4.620268	defu	-0.1538093
-4.620268	defying	-0.1538093
-4.276299	degeneration	-0.1818972
-4.422017	degenerative	-0.1538093
-4.276299	degree	-0.1818972
-4.509838	degrees	-0.1818972
-4.620268	dehong	-0.1538093
-4.620268	deibis	-0.1538093
-3.945854	delay	-0.1996654
-4.422017	delayed	-0.1538093
-4.620268	delays	-0.1538093
-4.422017	delegate	-0.1538092
-4.007928	delegates	-0.1538093
-3.690795	delegation	-0.1978393
-3.760385	delegations	-0.2081065
-4.509838	deliberate	-0.1538093
-4.620268	deliberated	-0.1538093
-4.620268	deliberately	-0.1538092
-4.620268	deliberating	-0.1538093
-4.422017	deliberation	-0.1916785
-4.509838	delimitation	-0.211928
-4.509838	deliver	-0.1818972
-4.276299	delivered	-0.3045085
-4.620268	delivery	-0.1538093
-4.509838	delta	-0.211928
-4.620268	deluge	-0.1538093
-4.276299	demand	-0.1538093
-4.276299	demanded	-0.1723313
-4.080379	demanding	-0.1916785
-3.799863	demands	-0.2474926
-4.422017	demarcate	-0.227118
-4.620268	demarcation	-0.1538093
-4.620268	demark	-0.1538093
-4.620268	demo	-0.1538092
-4.167383	democracy	-0.1538093
-3.603693	democratic	-0.2711455
-3.891553	demonstrate	-0.2607381
-4.620268	demonstrated	-0.1538092
-4.167383	demonstrates	-0.1962944
-3.945854	demonstration	-0.1798716
-4.276299	demonstrations	-0.1538092
-4.620268	denatured	-0.1538093
-4.276299	deng	-0.211928
-4.509838	denies	-0.1538092
-4.080379	denmark	-0.1898367
-4.620268	denoted	-0.1538093
-4.620268	denounce	-0.1538093
-4.620268	denouncing	-0.1538093
-4.620268	dense	-0.1538093
-4.620268	density	-0.1538093
-4.167383	denuclearization	-0.2090369
-4.620268	denuclearizing	-0.1538093
-3.126718	department	-0.3807291
-3.398014	departments	-0.2674166
-4.167383	depend	-0.3045085
-4.509838	depended	-0.1538093
-4.509838	depending	-0.1916785
-4.422017	depends	-0.1538093
-4.620268	deploy	-0.1538093
-3.945854	deployed	-0.1723313
-4.509838	deploying	-0.1538093
-4.276299	deployment	-0.3520567
-4.509838	deploys	-0.1538093
-4.620268	deport	-0.1538093
-4.509838	deported	-0.211928
-4.620268	deposits	-0.1538092
-4.509838	depth	-0.1538093
-4.620268	deputies	-0.1538093
-3.760385	deputy	-0.3378443
-4.620268	derivative	-0.1538092
-4.509838	derivatives	-0.1916785
-4.620268	descendants	-0.1538093
-4.509838	descendents	-0.1538093
-4.620268	described	-0.1538092
-4.620268	descriptions	-0.1538093
-3.760385	design	-0.2686505
-4.422017	designate	-0.1916785
-4.080379	designated	-0.1889187
-4.509838	designation	-0.1538093
-4.509838	designations	-0.1538093
-3.799863	designed	-0.1827496
-4.167383	designer	-0.1786851
-4.422017	designers	-0.1818972
-4.620268	designing	-0.1538092
-4.509838	designs	-0.1538092
-4.276299	desire	-0.1962944
-4.620268	desiring	-0.1538093
-4.620268	desperation	-0.1538093
-4.276299	despite	-0.1538093
-4.422017	destroy	-0.1538093
-4.620268	destroyed	-0.1538093
-4.620268	destroys	-0.1538093
-4.620268	destruct	-0.1538093
-4.620268	destructive	-0.1538093
-4.620268	detachment	-0.1538093
-4.620268	detail	-0.1538093
-4.276299	detailed	-0.1538093
-4.167383	details	-0.1962944
-4.620268	detain	-0.1538093
-4.620268	detained	-0.1538093
-4.276299	detainment	-0.1538093
-4.620268	detected	-0.1538093
-4.167383	detection	-0.1538092
-4.620268	detectives	-0.1538093
-4.276299	detention	-0.1761324
-4.620268	deteriorated	-0.1538093
-4.620268	deteriorating	-0.1538093
-4.422017	deterioration	-0.1538092
-3.891553	determination	-0.3615731
-4.167383	determine	-0.1962944
-3.799863	determined	-0.1933214
-4.276299	determines	-0.1818972
-4.620268	deterrence	-0.1538092
-4.620268	deterrent	-0.1538093
-4.620268	detour	-0.1538093
-4.620268	detoured	-0.1538093
-4.620268	detours	-0.1538093
-4.620268	detriment	-0.1538093
-4.620268	detrimental	-0.1538093
-3.891553	develop	-0.1660691
-3.469053	developed	-0.2094894
-3.603693	developing	-0.2243691
-3.032462	development	-0.486596
-4.167383	developmental	-0.1538093
-3.690795	developments	-0.2866918
-4.509838	develops	-0.1538093
-4.620268	devise	-0.1538092
-4.620268	devised	-0.1538093
-4.620268	devising	-0.1538092
-4.620268	devote	-0.1538092
-4.422017	devoted	-0.1538093
-4.509838	devotes	-0.1538093
-4.620268	devoting	-0.1538093
-4.620268	deying	-0.1538093
-3.891553	diabetes	-0.2084609
-4.509838	diabetic	-0.211928
-4.509838	diabetics	-0.1538093
-4.620268	diagnosed	-0.1538093
-4.620268	diagnosis	-0.1538093
-4.167383	dialogue	-0.1708781
-4.080379	dialysis	-0.1837259
-4.509838	diana	-0.1648274
-4.620268	diankun	-0.1538093
-3.309402	did	-0.8701068
-4.422017	didn't	-0.1916785
-4.080379	die	-0.1696364
-3.603693	died	-0.3071887
-4.509838	dies	-0.1538093
-4.276299	difference	-0.2031338
-4.276299	differences	-0.1538092
-3.469053	different	-0.1630589
-4.620268	differentiate	-0.1538093
-4.620268	differentiating	-0.1538092
-4.620268	differentiation	-0.1538093
-4.422017	differently	-0.1538093
-3.578152	difficult	-0.2254657
-3.799863	difficulties	-0.1723313
-4.167383	difficulty	-0.1761324
-4.509838	diffuse	-0.211928
-4.620268	diffusive	-0.1538093
-4.422017	digest	-0.1538093
-4.509838	digested	-0.211928
-4.509838	digging	-0.1916785
-3.891553	digital	-0.233538
-4.422017	digitalglobe	-0.1538092
-4.422017	digitalization	-0.227118
-4.620268	digitization	-0.1538093
-4.620268	dike	-0.1538093
-4.167383	dikes	-0.1538093
-4.620268	diligence	-0.1538092
-4.620268	diligent	-0.1538092
-4.620268	dilute	-0.1538093
-4.620268	dimensional	-0.1538093
-4.620268	din	-0.1538092
-4.167383	ding	-0.3671061
-4.620268	diploma	-0.1538093
-4.509838	diplomat	-0.1538092
-4.276299	diplomatic	-0.3001593
-4.620268	diplomats	-0.1538093
-3.48879	direct	-0.1848925
-4.422017	directed	-0.1916785
-4.007928	direction	-0.1898367
-4.276299	directions	-0.1723313
-4.422017	directive	-0.1538093
-3.509466	directly	-0.1740236
-3.554029	director	-0.3621877
-4.620268	directorate	-0.1538093
-4.422017	directors	-0.1538093
-4.620268	dirty	-0.1538093
-4.620268	disable	-0.1538093
-4.620268	disablement	-0.1538093
-4.620268	disables	-0.1538093
-4.620268	disagreement	-0.1538093
-4.509838	disagreements	-0.1538093
-4.620268	disappear	-0.1538093
-4.620268	disappointed	-0.1538093
-4.620268	disappointing	-0.1538093
-4.620268	disarmament	-0.1538093
-3.760385	disaster	-0.1675532
-4.080379	disasters	-0.1660691
-4.509838	disastrous	-0.1538093
-4.620268	disastrously	-0.1538093
-4.509838	discharge	-0.1538093
-4.509838	discharged	-0.211928
-4.509838	discharging	-0.1538093
-4.167383	disciplinary	-0.1723313
-3.690795	discipline	-0.3000775
-4.509838	disciplined	-0.1538093
-3.760385	disclosed	-0.2367148
-4.620268	disclosing	-0.1538093
-4.276299	disclosure	-0.2209781
-4.620268	disclosures	-0.1538093
-4.509838	discontinue	-0.1538093
-4.620268	discontinued	-0.1538093
-4.509838	discord	-0.1538093
-4.620268	discount	-0.1538093
-4.620268	discounts	-0.1538093
-4.276299	discover	-0.1696364
-3.509466	discovered	-0.1821421
-4.620268	discoveries	-0.1538093
-4.509838	discovering	-0.1538093
-4.167383	discovery	-0.1916785
-4.620268	discrepancy	-0.1538093
-4.509838	discrimination	-0.211928
-3.843293	discuss	-0.1675532
-4.167383	discussed	-0.1660691
-4.620268	discusses	-0.1538093
-4.422017	discussing	-0.1538093
-3.891553	discussion	-0.1965151
-3.554029	discussions	-0.3043283
-4.007928	disease	-0.1929739
-4.167383	diseases	-0.1538092
-4.620268	disinfection	-0.1538093
-4.620268	disintegrated	-0.1538093
-4.509838	dismissed	-0.211928
-4.422017	disorder	-0.1538092
-4.620268	disordered	-0.1538093
-4.509838	disorderly	-0.1538092
-4.620268	disorganized	-0.1538093
-4.620268	disparagement	-0.1538092
-4.620268	disparities	-0.1538093
-4.620268	disparity	-0.1538093
-4.167383	dispatch	-0.1761324
-4.422017	dispatched	-0.1538093
-4.620268	dispatches	-0.1538093
-4.620268	dispatchment	-0.1538092
-4.620268	dispelled	-0.1538093
-4.620268	dispersed	-0.1538093
-4.167383	display	-0.1860622
-4.007928	displayed	-0.1818972
-4.620268	displaying	-0.1538093
-4.620268	displays	-0.1538093
-4.620268	displeased	-0.1538092
-4.620268	disposal	-0.1538093
-4.167383	dispute	-0.1696364
-4.620268	disputed	-0.1538093
-4.167383	disputes	-0.1538092
-4.620268	disqualification	-0.1538092
-4.620268	disqualified	-0.1538092
-4.509838	disrupted	-0.211928
-4.509838	disruptive	-0.211928
-4.620268	dissatisfaction	-0.1538093
-4.620268	disseminate	-0.1538093
-4.620268	dissemination	-0.1538093
-4.620268	dissent	-0.1538093
-4.620268	dissention	-0.1538093
-4.620268	dissertation	-0.1538093
-4.620268	dissimilating	-0.1538093
-4.276299	dissolution	-0.1818972
-4.509838	dissolve	-0.1538093
-4.620268	dissolving	-0.1538093
-4.509838	distance	-0.1538093
-4.620268	distant	-0.1538092
-4.620268	distinct	-0.1538093
-4.620268	distinction	-0.1538093
-4.509838	distinctive	-0.1538093
-4.509838	distinguish	-0.1818972
-4.620268	distinguishes	-0.1538093
-4.620268	distinguishing	-0.1538093
-4.509838	distribute	-0.1538092
-4.276299	distributed	-0.1676262
-3.945854	distribution	-0.1966531
-4.167383	distributor	-0.1761324
-4.620268	distributors	-0.1538093
-3.724197	district	-0.2696787
-4.276299	districts	-0.1761324
-4.509838	disturb	-0.1538093
-4.422017	divergence	-0.1538093
-4.620268	diversity	-0.1538092
-4.620268	divert	-0.1538093
-4.422017	divide	-0.1538093
-4.167383	divided	-0.3045085
-4.620268	dividing	-0.1538092
-3.891553	division	-0.258751
-4.620268	división	-0.1538093
-4.509838	divorce	-0.1538093
-4.620268	divulged	-0.1538093
-4.422017	dizzy	-0.1818971
-3.843293	djokovic	-0.1777717
-4.620268	dmytriev	-0.1538093
-3.213852	do	-0.3388856
-4.509838	docking	-0.1538093
-4.620268	docks	-0.1538092
-4.167383	doctor	-0.1905725
-4.080379	doctors	-0.2754757
-4.007928	document	-0.1648274
-4.620268	documentation	-0.1538093
-3.799863	documents	-0.1873782
-4.620268	dodging	-0.1538092
-3.322971	does	-0.860756
-4.276299	doesn't	-0.1538093
-4.620268	dogmatists	-0.1538092
-4.422017	doha	-0.1916785
-3.659779	doing	-0.1598959
-4.620268	dollar	-0.1538092
-4.167383	dollars	-0.1725098
-4.620268	domain	-0.1538092
-4.276299	dome	-0.3045085
-3.450174	domestic	-0.252831
-4.422017	domestically	-0.1538092
-4.509838	dominant	-0.1916785
-4.620268	dominates	-0.1538093
-4.620268	domino	-0.1538093
-4.080379	don't	-0.1708781
-4.509838	donate	-0.1916785
-4.422017	donated	-0.1538093
-4.422017	donates	-0.227118
-4.620268	donation	-0.1538093
-4.620268	donations	-0.1538093
-4.620268	donator	-0.1538093
-3.760385	done	-0.1696364
-4.422017	dong	-0.227118
-4.509838	dongcheng	-0.211928
-4.620268	dongfu	-0.1538092
-4.620268	dongji	-0.1538093
-4.167383	donor	-0.1723313
-4.620268	donors	-0.1538093
-4.276299	door	-0.1676262
-4.509838	doors	-0.211928
-4.167383	doping	-0.1538093
-4.422017	dormitory	-0.1818972
-4.509838	dossier	-0.1538092
-4.620268	double	-0.1538092
-4.620268	doubly	-0.1538093
-4.509838	doubt	-0.1538093
-4.620268	doubtlessly	-0.1538093
-4.509838	doubts	-0.1916785
-4.422017	doves	-0.1538093
-3.351451	down	-0.202414
-4.620268	downplay	-0.1538093
-4.620268	downs	-0.1538093
-4.422017	downward	-0.1916785
-4.509838	dozen	-0.1538093
-4.167383	dozens	-0.4489667
-4.509838	dpp	-0.1538093
-4.620268	dprk	-0.1538093
-4.276299	draft	-0.1723313
-4.620268	drafted	-0.1538093
-4.620268	drafting	-0.1538093
-4.620268	drag	-0.1538093
-4.509838	dragon	-0.1538093
-4.620268	dragons	-0.1538092
-4.509838	drain	-0.1538093
-4.509838	draining	-0.1538093
-4.509838	drama	-0.1916786
-4.620268	dramatic	-0.1538093
-4.620268	dramatization	-0.1538093
-4.422017	draw	-0.1818972
-4.620268	drawbacks	-0.1538093
-4.620268	drawer	-0.1538092
-4.276299	drawing	-0.1996654
-4.509838	drawn	-0.1916785
-4.620268	draws	-0.1538093
-4.620268	dreadfully	-0.1538093
-4.509838	dream	-0.1916785
-4.620268	dredging	-0.1538093
-3.891553	dress	-0.355606
-4.509838	dressed	-0.211928
-4.620268	dressing	-0.1538092
-3.945854	drew	-0.1798716
-4.167383	drill	-0.1962944
-4.167383	drinking	-0.2209781
-4.422017	drive	-0.1538093
-4.620268	driven	-0.1538093
-4.620268	driver	-0.1538093
-4.276299	driving	-0.1696364
-3.945854	drop	-0.1898367
-4.620268	dropped	-0.1538093
-3.799863	drought	-0.2134815
-4.167383	droughts	-0.1723313
-4.509838	drove	-0.1538093
-4.509838	drowned	-0.1538093
-3.945854	drug	-0.1616507
-3.799863	drugs	-0.3749526
-4.620268	drum	-0.1538093
-4.620268	drumming	-0.1538093
-4.509838	drunk	-0.211928
-4.620268	dual	-0.1538093
-4.620268	duality	-0.1538093
-4.509838	dubbed	-0.1538093
-4.620268	ducks	-0.1538093
-3.336978	due	-0.9886861
-4.509838	duel	-0.1538093
-4.620268	dug	-0.1538093
-4.620268	duma	-0.1538093
-4.620268	dumping	-0.1538093
-4.620268	duofu	-0.1538093
-4.620268	duration	-0.1538093
-2.920983	during	-0.6173228
-4.509838	dusk	-0.1538093
-3.760385	duties	-0.2572432
-4.007928	duty	-0.1786851
-4.620268	dwellings	-0.1538093
-4.620268	dying	-0.1538093
-4.620268	dynamism	-0.1538093
-4.422017	dynasty	-0.1889187
-4.620268	dynsasty	-0.1538093
-3.843293	e	-0.7499967
-3.203261	each	-0.2913787
-4.620268	eagerly	-0.1538092
-3.724197	earlier	-0.2573728
-3.659779	early	-0.1680793
-4.620268	earmarked	-0.1538093
-4.509838	earn	-0.1538093
-4.422017	earned	-0.1538093
-4.620268	earners	-0.1538093
-4.620268	earnest	-0.1538092
-4.167383	earnestly	-0.1696364
-4.620268	earth	-0.1538092
-4.080379	earthquake	-0.1937706
-4.620268	earthquakes	-0.1538093
-4.620268	ease	-0.1538093
-4.620268	eased	-0.1538093
-4.620268	easier	-0.1538093
-4.080379	easily	-0.1860622
-4.422017	east	-0.1538093
-4.167383	eastern	-0.1740549
-4.167383	easy	-0.1818972
-4.276299	ebay	-0.1538093
-4.620268	ec	-0.1538093
-4.276299	echo	-0.2075985
-4.007928	eco	-0.5950947
-4.620268	ecologic	-0.1538093
-3.891553	ecological	-0.2104801
-3.182823	economic	-0.2872995
-4.620268	economical	-0.1538092
-4.620268	economically	-0.1538093
-4.422017	economics	-0.1538093
-4.620268	economist	-0.1538093
-4.276299	economy	-0.1538092
-4.620268	edible	-0.1538093
-4.620268	edited	-0.1538093
-3.891553	edition	-0.2195629
-4.422017	educated	-0.1818972
-4.620268	educating	-0.1538093
-3.283472	education	-0.2844771
-4.620268	education'	-0.1538093
-3.659779	educational	-0.173685
-4.620268	educations	-0.1538093
-4.620268	educators	-0.1538092
-4.620268	eelam	-0.1538093
-4.620268	eelamin	-0.1538093
-3.48879	effect	-0.3204604
-4.620268	effected	-0.1538093
-3.724197	effective	-0.18257
-3.891553	effectively	-0.1654151
-4.422017	effectiveness	-0.1538092
-3.630831	effects	-0.3287074
-3.799863	efficiency	-0.1937706
-4.422017	efficient	-0.1761324
-3.891553	effort	-0.1898367
-3.283472	efforts	-0.3598511
-4.509838	eggs	-0.211928
-3.843293	egypt	-0.1898367
-4.080379	egyptian	-0.1916785
-3.630831	eight	-0.1761324
-4.620268	eighth	-0.1538093
-4.620268	eighty	-0.1538093
-3.724197	either	-0.1810858
-4.620268	el	-0.1538092
-4.620268	elder	-0.1538093
-4.620268	elderly	-0.1538092
-4.620268	elders	-0.1538092
-4.509838	elect	-0.1538093
-3.760385	elected	-0.2123997
-4.620268	electee	-0.1538093
-4.620268	electing	-0.1538093
-3.531176	election	-0.2047067
-3.760385	elections	-0.2765964
-4.276299	electoral	-0.1761324
-4.080379	electric	-0.2417178
-3.945854	electrical	-0.1945141
-4.422017	electrician	-0.227118
-4.620268	electricians	-0.1538093
-3.432082	electricity	-0.199418
-4.509838	electrifying	-0.1538093
-4.620268	electrocuted	-0.1538093
-4.422017	electrocution	-0.1916785
-3.630831	electronic	-0.3173613
-4.167383	electronics	-0.1538093
-4.422017	elegance	-0.1538092
-4.509838	elegant	-0.1538093
-4.509838	elegiac	-0.1916785
-4.620268	element	-0.1538093
-4.620268	elemental	-0.1538092
-4.422017	elementary	-0.227118
-3.891553	elements	-0.1937706
-4.509838	elevate	-0.1916785
-4.509838	elevated	-0.1538093
-4.509838	elevating	-0.1538093
-4.509838	elevation	-0.1916785
-4.276299	eleven	-0.2075985
-4.620268	eleventh	-0.1538092
-4.509838	eligibility	-0.1538093
-4.422017	eligible	-0.1916785
-4.620268	eliminate	-0.1538093
-4.422017	elite	-0.1538093
-4.509838	elites	-0.211928
-4.276299	else	-0.1761324
-4.167383	elsewhere	-0.1837259
-4.509838	embankments	-0.1538093
-4.620268	embarking	-0.1538093
-4.620268	embarks	-0.1538093
-4.167383	embassy	-0.1784296
-4.509838	embezzling	-0.1538093
-4.422017	emblem	-0.1818972
-4.509838	emblems	-0.211928
-4.509838	embodies	-0.1538092
-4.509838	embodiment	-0.211928
-4.620268	embrace	-0.1538093
-4.167383	emerge	-0.1818972
-4.422017	emerged	-0.1916785
-4.620268	emergence	-0.1538093
-4.422017	emergencies	-0.227118
-3.509466	emergency	-0.1874324
-4.422017	emergent	-0.1916785
-4.620268	emerges	-0.1538093
-4.080379	emerging	-0.3836897
-4.620268	emission	-0.1538093
-4.276299	emotion	-0.1818972
-4.509838	emotional	-0.1538093
-4.620268	emotionally	-0.1538093
-4.620268	emotions	-0.1538092
-4.620268	empathize	-0.1538093
-4.167383	emphasis	-0.2209781
-4.509838	emphasize	-0.211928
-3.799863	emphasized	-0.3495375
-4.422017	emphasizes	-0.1538093
-4.620268	emphasizing	-0.1538093
-4.509838	employ	-0.1538093
-4.007928	employed	-0.1798716
-4.422017	employee	-0.1538093
-4.007928	employees	-0.1538093
-4.509838	employer	-0.1538093
-3.891553	employers	-0.1860964
-4.620268	employing	-0.1538093
-3.690795	employment	-0.2080774
-4.620268	employs	-0.1538093
-4.620268	empower	-0.1538093
-4.422017	enable	-0.1538093
-4.276299	enabled	-0.1538093
-4.620268	enables	-0.1538092
-4.509838	enabling	-0.1538093
-4.620268	enacted	-0.1538093
-4.620268	enactment	-0.1538093
-4.620268	encircle	-0.1538093
-4.620268	encircled	-0.1538093
-4.620268	encounter	-0.1538093
-4.509838	encountered	-0.1538093
-4.620268	encounters	-0.1538093
-4.422017	encourage	-0.1538093
-4.620268	encouraged	-0.1538093
-4.422017	encourages	-0.1818972
-4.276299	encouraging	-0.1723313
-3.760385	end	-0.1886665
-4.422017	end.	-0.1916786
-4.509838	endeavor	-0.1538093
-4.276299	endeavors	-0.1962944
-3.799863	ended	-0.1723313
-4.167383	ending	-0.1538093
-4.509838	endless	-0.1538093
-4.620268	endlessly	-0.1538093
-4.509838	endorsed	-0.1538093
-4.620268	endowed	-0.1538093
-4.080379	ends	-0.1696364
-4.509838	endure	-0.211928
-4.620268	endures	-0.1538092
-4.167383	enemies	-0.1916785
-4.509838	energetic	-0.1538093
-4.620268	energetically	-0.1538093
-4.620268	energies	-0.1538093
-4.007928	energy	-0.2274891
-4.509838	enforce	-0.1538093
-4.276299	enforcement	-0.1740549
-4.620268	eng	-0.1538093
-4.007928	engage	-0.5086285
-3.799863	engaged	-0.6469311
-4.509838	engagement	-0.1538093
-4.509838	engaging	-0.211928
-4.167383	engineer	-0.1676262
-3.799863	engineering	-0.1675143
-4.167383	engineers	-0.2355941
-4.422017	england	-0.1538092
-3.531176	english	-0.2286503
-3.843293	enhance	-0.2079849
-4.509838	enhanced	-0.1538093
-4.509838	enhancement	-0.1538093
-4.276299	enhancing	-0.1538093
-4.007928	enjoy	-0.2148557
-4.620268	enjoyed	-0.1538093
-3.945854	enjoying	-0.2767817
-4.620268	enlai	-0.1538093
-4.276299	enlarge	-0.1962944
-4.620268	enlarged	-0.1538093
-4.620268	enlightened	-0.1538092
-4.509838	enormous	-0.1538093
-3.945854	enough	-0.1966531
-4.620268	enquiry	-0.1538093
-4.276299	enrich	-0.1818972
-4.509838	enrichment	-0.1538093
-4.509838	enroll	-0.1538093
-4.620268	enrolled	-0.1538093
-4.620268	ensconced	-0.1538093
-4.620268	ensembles	-0.1538093
-4.620268	ensigns	-0.1538093
-4.509838	ensure	-0.1676262
-4.422017	ensured	-0.1916785
-4.620268	ensures	-0.1538093
-3.843293	ensuring	-0.2208486
-4.620268	entanglements	-0.1538093
-3.843293	enter	-0.3318134
-3.531176	entered	-0.443944
-3.891553	entering	-0.2914677
-3.945854	enterprise	-0.1538093
-3.690795	enterprises	-0.1919545
-4.620268	enters	-0.1538093
-4.422017	entertainment	-0.1538093
-4.167383	enthusiasm	-0.1696364
-4.422017	enthusiastic	-0.1761324
-4.167383	enthusiastically	-0.1538092
-4.620268	enthusiasts	-0.1538093
-4.007928	entire	-0.1598959
-4.422017	entirely	-0.1538093
-4.509838	entities	-0.1538093
-4.276299	entitled	-0.1818972
-4.620268	entourage	-0.1538093
-4.007928	entrance	-0.176624
-4.276299	entrances	-0.1761324
-4.276299	entries	-0.1818972
-4.509838	entrusted	-0.211928
-4.276299	entry	-0.1818972
-4.620268	envies	-0.1538093
-3.48879	environment	-0.3594827
-3.398014	environmental	-0.3177283
-4.509838	environmentally	-0.211928
-3.945854	envoy	-0.2159252
-4.620268	epaulets	-0.1538092
-4.620268	epaulettes	-0.1538092
-3.891553	epidemic	-0.175043
-4.509838	episode	-0.1538093
-4.422017	epithelia	-0.1538093
-4.007928	epithelial	-0.5086285
-4.007928	equal	-0.5950947
-4.620268	equality	-0.1538092
-4.620268	equalized	-0.1538093
-4.620268	equilibrium	-0.1538092
-3.414714	equipment	-0.2159252
-4.422017	equipments	-0.1818971
-4.620268	equipped	-0.1538093
-4.620268	equities	-0.1538093
-4.276299	equivalent	-0.1818972
-4.167383	era	-0.1962944
-3.690795	eritrea	-0.2767817
-4.620268	eritrean	-0.1538093
-4.620268	errors	-0.1538093
-4.167383	erupted	-0.1538092
-4.620268	erupting	-0.1538092
-4.620268	eruption	-0.1538093
-4.620268	escalating	-0.1538093
-4.422017	escape	-0.1538093
-4.167383	escaped	-0.1761324
-4.509838	escapes	-0.1538093
-3.760385	especially	-0.1797473
-4.509838	espionage	-0.211928
-4.080379	essay	-0.2609104
-3.891553	essays	-0.1629715
-4.276299	essential	-0.1538093
-4.509838	essentially	-0.1538093
-3.760385	establish	-0.3117304
-3.309402	established	-0.2505201
-4.509838	establishes	-0.211928
-3.843293	establishing	-0.2428844
-4.276299	establishment	-0.2090369
-4.620268	establishments	-0.1538093
-4.620268	estate	-0.1538093
-4.620268	esthetic	-0.1538092
-4.509838	estimate	-0.1538093
-4.167383	estimated	-0.1916785
-4.509838	estimates	-0.1538093
-4.620268	estimations	-0.1538093
-4.509838	etc	-0.1538093
-4.422017	etc.	-0.1622598
-4.276299	eternal	-0.3520567
-4.620268	ethic	-0.1538093
-4.276299	ethical	-0.1538093
-4.276299	ethics	-0.1818972
-3.760385	ethiopia	-0.2764529
-4.620268	ethiopian	-0.1538093
-4.007928	ethnic	-0.1860964
-4.620268	ethnically	-0.1538093
-4.620268	ethnicities	-0.1538092
-4.509838	etiquette	-0.211928
-4.620268	etiquettes	-0.1538093
-3.891553	eu	-0.184543
-4.620268	euro	-0.1538093
-3.724197	europe	-0.2398587
-3.760385	european	-0.2333886
-4.422017	euros	-0.1898367
-4.620268	evacuate	-0.1538092
-4.007928	evacuated	-0.2457103
-4.620268	evacuates	-0.1538093
-4.422017	evacuation	-0.1916785
-4.422017	evaluate	-0.1916785
-3.578152	evaluation	-0.2086141
-4.422017	evaluations	-0.1538092
-4.620268	eve	-0.1538093
-3.469053	even	-0.2120205
-4.620268	evened	-0.1538093
-4.276299	evening	-0.1761324
-4.620268	evenly	-0.1538093
-3.891553	event	-0.1723313
-4.007928	events	-0.1538093
-4.620268	eventual	-0.1538093
-4.007928	eventually	-0.1786851
-3.891553	ever	-0.1952907
-4.620268	everlasting	-0.1538093
-3.259004	every	-0.2297783
-4.167383	everybody	-0.1723313
-4.167383	everyday	-0.184543
-4.080379	everyone	-0.1818972
-4.422017	everything	-0.1538093
-3.659779	everywhere	-0.3845522
-4.620268	eviction	-0.1538093
-4.620268	evictions	-0.1538092
-4.080379	evidence	-0.1860964
-4.509838	evident	-0.1538093
-4.620268	exacerbating	-0.1538093
-4.620268	exactly	-0.1538093
-4.620268	exaggerating	-0.1538093
-4.620268	exaggeration	-0.1538093
-4.620268	exam	-0.1538093
-3.724197	examination	-0.3293062
-4.007928	examinations	-0.1945577
-4.620268	examine	-0.1538092
-4.509838	examining	-0.1538093
-4.007928	example	-0.1877395
-4.422017	examples	-0.1538093
-4.276299	exams	-0.1818972
-4.276299	exceed	-0.1538092
-4.509838	exceeded	-0.1538093
-4.422017	exceeding	-0.1538093
-4.620268	exceedingly	-0.1538092
-4.167383	exceeds	-0.1837259
-3.891553	excellent	-0.1622598
-4.620268	excellently	-0.1538093
-4.422017	except	-0.1538093
-4.509838	exception	-0.1916785
-4.509838	exceptionally	-0.1538093
-4.422017	excerpts	-0.1538093
-4.620268	excerpt）shanghai	-0.1538093
-4.620268	excess	-0.1538093
-4.620268	excessive	-0.1538093
-4.509838	excessively	-0.1538093
-3.322971	exchange	-0.3180221
-4.276299	exchanged	-0.1660691
-3.799863	exchanges	-0.2257078
-4.620268	excitedly	-0.1538092
-4.620268	excitement	-0.1538093
-4.620268	exciting	-0.1538093
-4.620268	exclaim	-0.1538093
-4.620268	exclaimed	-0.1538093
-4.620268	exclamations	-0.1538093
-4.509838	exclude	-0.1538092
-4.509838	excluded	-0.1538093
-4.620268	excluding	-0.1538093
-4.620268	exclusion	-0.1538092
-4.620268	exclusive	-0.1538093
-4.509838	exclusively	-0.1538093
-4.509838	excuse	-0.211928
-4.167383	execute	-0.1761324
-4.620268	executed	-0.1538093
-4.276299	executing	-0.1761324
-4.422017	execution	-0.1916785
-4.167383	executive	-0.1837259
-4.620268	executives	-0.1538093
-4.276299	exemplary	-0.1761324
-4.167383	exempt	-0.1916785
-4.276299	exempted	-0.2075984
-4.276299	exemption	-0.1761324
-4.620268	exemptions	-0.1538092
-4.080379	exercise	-0.1538092
-4.620268	exercised	-0.1538093
-4.080379	exercises	-0.1538093
-4.620268	exercising	-0.1538092
-4.422017	exert	-0.1538093
-4.620268	exerting	-0.1538093
-4.620268	exhibit	-0.1538093
-4.620268	exhibited	-0.1538092
-4.509838	exhibition	-0.1916785
-4.620268	exhortative	-0.1538093
-4.509838	exhorted	-0.211928
-4.620268	exile	-0.1538093
-4.167383	exiled	-0.1945577
-4.167383	exist	-0.1966531
-4.422017	existed	-0.1818972
-4.422017	existence	-0.1538092
-4.080379	existing	-0.1676262
-4.422017	exists	-0.1916785
-4.167383	exit	-0.1962944
-4.620268	exited	-0.1538092
-4.509838	exits	-0.1538093
-4.167383	expand	-0.1768974
-4.167383	expanded	-0.2754757
-4.167383	expanding	-0.1538093
-4.620268	expands	-0.1538093
-4.620268	expanse	-0.1538093
-4.509838	expansion	-0.1538093
-4.080379	expect	-0.1945577
-4.509838	expectation	-0.1538093
-3.891553	expected	-0.2767817
-4.422017	expects	-0.1916785
-4.620268	expedite	-0.1538092
-4.167383	expedition	-0.1622598
-4.620268	expeditioners	-0.1538093
-4.276299	expeditions	-0.1538092
-4.620268	expeditiously	-0.1538093
-4.620268	expel	-0.1538093
-4.422017	expelled	-0.1916785
-4.620268	expelling	-0.1538093
-4.620268	expend	-0.1538093
-4.620268	expending	-0.1538093
-4.167383	expenditure	-0.1889187
-4.167383	expenditures	-0.1848925
-4.620268	expense	-0.1538093
-4.080379	expenses	-0.1837259
-3.450174	experience	-0.4068661
-3.760385	experienced	-0.1611235
-3.843293	experiences	-0.1952249
-4.620268	experiencing	-0.1538093
-4.509838	experiment	-0.1538092
-4.620268	experimental	-0.1538093
-4.620268	experimented	-0.1538093
-4.509838	experiments	-0.1538093
-3.843293	expert	-0.1611235
-3.450174	experts	-0.2232542
-4.422017	expires	-0.2075984
-4.422017	explain	-0.1538093
-4.620268	explaination	-0.1538093
-3.724197	explained	-0.2768891
-4.620268	explains	-0.1538093
-4.080379	explanation	-0.258696
-4.620268	explicit	-0.1538092
-4.007928	explicitly	-0.1660691
-4.509838	exploit	-0.1538093
-4.620268	exploiting	-0.1538093
-3.578152	exploration	-0.2070549
-4.167383	explorations	-0.1818972
-4.620268	exploratory	-0.1538093
-4.509838	explore	-0.1538093
-4.620268	exploring	-0.1538093
-4.276299	explosion	-0.2007041
-3.843293	export	-0.2248583
-4.620268	exportation	-0.1538093
-4.509838	exported	-0.1538093
-3.603693	exports	-0.2952276
-4.422017	exposed	-0.1538093
-4.620268	exposure	-0.1538093
-4.007928	express	-0.1685631
-3.336978	expressed	-0.3289458
-4.276299	expressing	-0.1538093
-4.276299	expression	-0.1538092
-4.620268	expressionless	-0.1538093
-4.509838	expressions	-0.1538093
-4.620268	expulsion	-0.1538093
-4.620268	exquisite	-0.1538093
-4.620268	extend	-0.1538093
-4.167383	extended	-0.1889187
-4.167383	extensive	-0.1696364
-4.080379	extensively	-0.1723313
-4.007928	extent	-0.1786851
-4.620268	external	-0.1538093
-4.509838	extra	-0.1818972
-4.620268	extract	-0.1538093
-4.620268	extracting	-0.1538093
-4.509838	extraction	-0.1538093
-4.620268	extracts	-0.1538093
-4.620268	extradite	-0.1538093
-4.620268	extradited	-0.1538093
-4.509838	extraordinary	-0.1538093
-4.509838	extravagance	-0.211928
-3.603693	extremely	-0.1746375
-4.167383	extremists	-0.2558654
-4.276299	eye	-0.1761324
-4.620268	eyes	-0.1538093
-4.509838	eyewitness	-0.1538093
-4.620268	eyewitnesses	-0.1538093
-4.620268	f1	-0.1538092
-4.509838	fabrication	-0.211928
-3.366424	face	-0.2702986
-4.167383	faced	-0.1761324
-4.080379	faces	-0.1660691
-4.620268	facets	-0.1538093
-4.509838	facial	-0.211928
-4.509838	facilitate	-0.1818972
-4.620268	facilitating	-0.1538093
-4.007928	facilities	-0.1827496
-3.843293	facility	-0.1860823
-4.167383	facing	-0.1538093
-4.509838	fact	-0.1538093
-4.276299	faction	-0.1538092
-4.276299	factions	-0.1860622
-4.620268	factor	-0.1538093
-3.760385	factories	-0.2648064
-3.891553	factors	-0.1937706
-4.509838	factory	-0.211928
-4.620268	factually	-0.1538093
-4.422017	fail	-0.1916785
-3.843293	failed	-0.4973244
-4.509838	failing	-0.211928
-4.167383	fails	-0.4489667
-3.945854	failure	-0.1745325
-4.080379	fair	-0.1768974
-4.167383	fairly	-0.1761324
-4.422017	fairness	-0.1916785
-4.509838	faith	-0.1538093
-4.620268	faiths	-0.1538093
-4.080379	fake	-0.1877395
-3.724197	fall	-0.183427
-4.276299	fallen	-0.1538093
-3.690795	falling	-0.1676262
-4.509838	falls	-0.1538093
-4.620268	false	-0.1538093
-4.620268	fame	-0.1538092
-4.620268	famed	-0.1538093
-4.007928	families	-0.2055093
-3.690795	family	-0.3130206
-3.799863	famous	-0.2628149
-4.276299	fan	-0.2090369
-4.276299	fangzheng	-0.2075985
-4.422017	fans	-0.1818972
-3.843293	far	-0.1750429
-4.509838	farce	-0.1916785
-4.620268	farces	-0.1538092
-4.167383	farewell	-0.4489667
-3.945854	farm	-0.2393693
-4.509838	farmer	-0.2119281
-4.007928	farmers	-0.1966531
-4.620268	farming	-0.1538093
-4.620268	farmland	-0.1538093
-4.422017	farms	-0.1723313
-4.276299	fashion	-0.1538092
-4.620268	fashions	-0.1538092
-3.891553	fast	-0.1761324
-3.659779	fatah	-0.2115903
-4.620268	fatal	-0.1538093
-4.620268	fatality	-0.1538093
-4.509838	fate	-0.1538093
-4.422017	father	-0.1916785
-4.620268	fatigue	-0.1538093
-4.620268	fatmir	-0.1538092
-4.509838	favor	-0.1538093
-4.007928	favorable	-0.1660691
-4.509838	favorite	-0.211928
-4.509838	fayed	-0.1538093
-4.080379	fayyad	-0.1838359
-4.509838	fda	-0.1786851
-4.080379	fear	-0.1860622
-4.620268	feared	-0.1538093
-4.620268	fearing	-0.1538093
-4.620268	fearless	-0.1538093
-4.620268	fears	-0.1538093
-4.276299	feasibility	-0.1818972
-4.007928	feature	-0.1837259
-4.276299	featured	-0.1538093
-4.080379	features	-0.1916785
-4.620268	featuring	-0.1538093
-4.620268	feb	-0.1538092
-4.620268	feb.	-0.1538093
-3.724197	february	-0.3087995
-4.620268	februrary	-0.1538092
-4.167383	federal	-0.1818972
-4.276299	federation	-0.1648274
-4.422017	federer	-0.1818972
-4.509838	fee	-0.1648274
-3.843293	feel	-0.1696364
-4.276299	feeling	-0.1538093
-4.276299	feelings	-0.1538093
-4.276299	feels	-0.1538092
-3.760385	fees	-0.2022751
-4.620268	fei	-0.1538093
-3.760385	fell	-0.2218157
-4.509838	fellow	-0.1538093
-4.080379	felt	-0.1538093
-3.799863	female	-0.2318805
-4.620268	females	-0.1538093
-4.620268	fends	-0.1538093
-3.891553	feng	-0.2031985
-4.620268	fenglin	-0.1538093
-4.620268	fengling	-0.1538093
-4.620268	fengsheng	-0.1538092
-4.509838	ferguson	-0.1916785
-3.891553	ferrari	-0.1981048
-4.620268	fertility	-0.1538093
-4.620268	fertilization	-0.1538093
-4.620268	fervent	-0.1538093
-4.620268	festival	-0.1538093
-4.620268	festivals	-0.1538093
-4.620268	festive	-0.1538092
-4.620268	fever	-0.1538093
-4.007928	few	-0.1757513
-4.509838	fewer	-0.1538093
-4.509838	fia	-0.1538093
-4.620268	fiber	-0.1538093
-4.620268	fibers	-0.1538093
-4.620268	fibrillation	-0.1538093
-4.620268	fibrous	-0.1538093
-4.620268	fidel	-0.1538093
-3.724197	field	-0.2556998
-3.843293	fields	-0.1773397
-4.007928	fierce	-0.200704
-4.620268	fiercely	-0.1538093
-4.620268	fifteenth	-0.1538093
-4.620268	fifth	-0.1538093
-4.620268	fifties	-0.1538093
-4.620268	fifty	-0.1538093
